<?xml version="1.0"?>
<MethodSetup Method="BDT::BDT">
  <GeneralInfo>
    <Info name="TMVA Release" value="4.2.1 [262657]"/>
    <Info name="ROOT Release" value="6.06/01 [394753]"/>
    <Info name="Creator" value="kskovpen"/>
    <Info name="Date" value="Sat Oct  8 09:42:45 2016"/>
    <Info name="Host" value="Linux vocms0315.cern.ch 2.6.32-573.26.1.el6.x86_64 #1 SMP Wed May 4 09:23:05 CEST 2016 x86_64 x86_64 x86_64 GNU/Linux"/>
    <Info name="Dir" value="/storage_mnt/storage/user/kskovpen/analysis/tHFCNC/CMSSW_8_0_12/src/tHFCNC/NtupleAnalyzer/test/MVA"/>
    <Info name="Training events" value="697256"/>
    <Info name="TrainingTime" value="1.51353906e+02"/>
    <Info name="AnalysisType" value="Classification"/>
  </GeneralInfo>
  <Options>
    <Option name="V" modified="Yes">False</Option>
    <Option name="VerbosityLevel" modified="No">Default</Option>
    <Option name="VarTransform" modified="No">None</Option>
    <Option name="H" modified="Yes">False</Option>
    <Option name="CreateMVAPdfs" modified="No">False</Option>
    <Option name="IgnoreNegWeightsInTraining" modified="Yes">True</Option>
    <Option name="NTrees" modified="Yes">100</Option>
    <Option name="MaxDepth" modified="Yes">3</Option>
    <Option name="MinNodeSize" modified="No">5%</Option>
    <Option name="nCuts" modified="Yes">20</Option>
    <Option name="BoostType" modified="No">AdaBoost</Option>
    <Option name="AdaBoostR2Loss" modified="No">quadratic</Option>
    <Option name="UseBaggedBoost" modified="No">False</Option>
    <Option name="Shrinkage" modified="No">1.000000e+00</Option>
    <Option name="AdaBoostBeta" modified="No">5.000000e-01</Option>
    <Option name="UseRandomisedTrees" modified="No">False</Option>
    <Option name="UseNvars" modified="No">3</Option>
    <Option name="UsePoissonNvars" modified="No">True</Option>
    <Option name="BaggedSampleFraction" modified="No">6.000000e-01</Option>
    <Option name="UseYesNoLeaf" modified="No">True</Option>
    <Option name="NegWeightTreatment" modified="No">inverseboostnegweights</Option>
    <Option name="Css" modified="No">1.000000e+00</Option>
    <Option name="Cts_sb" modified="No">1.000000e+00</Option>
    <Option name="Ctb_ss" modified="No">1.000000e+00</Option>
    <Option name="Cbb" modified="No">1.000000e+00</Option>
    <Option name="NodePurityLimit" modified="No">5.000000e-01</Option>
    <Option name="SeparationType" modified="Yes">giniindex</Option>
    <Option name="DoBoostMonitor" modified="No">False</Option>
    <Option name="UseFisherCuts" modified="No">False</Option>
    <Option name="MinLinCorrForFisher" modified="No">8.000000e-01</Option>
    <Option name="UseExclusiveVars" modified="No">False</Option>
    <Option name="DoPreselection" modified="No">False</Option>
    <Option name="SigToBkgFraction" modified="No">1.000000e+00</Option>
    <Option name="PruneMethod" modified="Yes">nopruning</Option>
    <Option name="PruneStrength" modified="No">0.000000e+00</Option>
    <Option name="PruningValFraction" modified="No">5.000000e-01</Option>
    <Option name="nEventsMin" modified="No">0</Option>
    <Option name="UseBaggedGrad" modified="No">False</Option>
    <Option name="GradBaggingFraction" modified="No">6.000000e-01</Option>
    <Option name="UseNTrainEvents" modified="No">0</Option>
    <Option name="NNodesMax" modified="No">0</Option>
  </Options>
  <Variables NVar="8">
    <Variable VarIndex="0" Expression="HiggsMass_TOPHLEPBB" Label="HiggsMass_TOPHLEPBB" Title="HiggsMass_TOPHLEPBB" Unit="" Internal="HiggsMass_TOPHLEPBB" Type="D" Min="1.65751801e+01" Max="5.00000000e+02"/>
    <Variable VarIndex="1" Expression="MVA_TOPHLEPBB" Label="MVA_TOPHLEPBB" Title="MVA_TOPHLEPBB" Unit="" Internal="MVA_TOPHLEPBB" Type="D" Min="-7.25488067e-01" Max="7.47469962e-01"/>
    <Variable VarIndex="2" Expression="TopLepMass_TOPHLEPBB" Label="TopLepMass_TOPHLEPBB" Title="TopLepMass_TOPHLEPBB" Unit="" Internal="TopLepMass_TOPHLEPBB" Type="D" Min="8.13465805e+01" Max="5.00000000e+02"/>
    <Variable VarIndex="3" Expression="HiggsBJet1HiggsBJet2Dr_TOPHLEPBB" Label="HiggsBJet1HiggsBJet2Dr_TOPHLEPBB" Title="HiggsBJet1HiggsBJet2Dr_TOPHLEPBB" Unit="" Internal="HiggsBJet1HiggsBJet2Dr_TOPHLEPBB" Type="D" Min="3.84824663e-01" Max="5.43350744e+00"/>
    <Variable VarIndex="4" Expression="TopLepHiggsDr_TOPHLEPBB" Label="TopLepHiggsDr_TOPHLEPBB" Title="TopLepHiggsDr_TOPHLEPBB" Unit="" Internal="TopLepHiggsDr_TOPHLEPBB" Type="D" Min="2.39859652e-02" Max="1.14499855e+01"/>
    <Variable VarIndex="5" Expression="HiggsBJet1CSVv2_TOPHLEPBB" Label="HiggsBJet1CSVv2_TOPHLEPBB" Title="HiggsBJet1CSVv2_TOPHLEPBB" Unit="" Internal="HiggsBJet1CSVv2_TOPHLEPBB" Type="D" Min="8.00000250e-01" Max="1.00000000e+00"/>
    <Variable VarIndex="6" Expression="HiggsBJet2CSVv2_TOPHLEPBB" Label="HiggsBJet2CSVv2_TOPHLEPBB" Title="HiggsBJet2CSVv2_TOPHLEPBB" Unit="" Internal="HiggsBJet2CSVv2_TOPHLEPBB" Type="D" Min="-1.00000000e+01" Max="9.99436498e-01"/>
    <Variable VarIndex="7" Expression="TopLepBJetCSVv2_TOPHLEPBB" Label="TopLepBJetCSVv2_TOPHLEPBB" Title="TopLepBJetCSVv2_TOPHLEPBB" Unit="" Internal="TopLepBJetCSVv2_TOPHLEPBB" Type="D" Min="-1.00000000e+01" Max="9.99942243e-01"/>
  </Variables>
  <Spectators NSpec="0"/>
  <Classes NClass="2">
    <Class Name="Signal" Index="0"/>
    <Class Name="Background" Index="1"/>
  </Classes>
  <Transformations NTransformations="0"/>
  <MVAPdfs/>
  <Weights NTrees="100" AnalysisType="0">
    <BinaryTree type="DecisionTree" boostWeight="2.0734656588575140e-01" itree="0">
      <Node pos="s" depth="0" NCoef="0" IVar="6" Cut="4.7565379738807678e-01" cType="0" res="-9.9000000000000000e+01" rms="0.0000000000000000e+00" purity="5.0000000000000000e-01" nType="0">
        <Node pos="l" depth="1" NCoef="0" IVar="-1" Cut="4.7597181797027588e-01" cType="0" res="-9.9000000000000000e+01" rms="0.0000000000000000e+00" purity="6.2066090106964111e-01" nType="1"/>
        <Node pos="r" depth="1" NCoef="0" IVar="2" Cut="1.8335719299316406e+02" cType="0" res="-9.9000000000000000e+01" rms="0.0000000000000000e+00" purity="4.1538378596305847e-01" nType="0">
          <Node pos="l" depth="2" NCoef="0" IVar="7" Cut="9.8064750432968140e-01" cType="0" res="-9.9000000000000000e+01" rms="0.0000000000000000e+00" purity="4.6569880843162537e-01" nType="0">
            <Node pos="l" depth="3" NCoef="0" IVar="-1" Cut="0.0000000000000000e+00" cType="1" res="-9.9000000000000000e+01" rms="0.0000000000000000e+00" purity="5.1334136724472046e-01" nType="1"/>
            <Node pos="r" depth="3" NCoef="0" IVar="-1" Cut="0.0000000000000000e+00" cType="1" res="-9.9000000000000000e+01" rms="0.0000000000000000e+00" purity="4.2698100209236145e-01" nType="-1"/>
          </Node>
          <Node pos="r" depth="2" NCoef="0" IVar="-1" Cut="1.1935964226722717e-01" cType="1" res="-9.9000000000000000e+01" rms="0.0000000000000000e+00" purity="3.8328549265861511e-01" nType="-1"/>
        </Node>
      </Node>
    </BinaryTree>
    <BinaryTree type="DecisionTree" boostWeight="1.5210141341792371e-01" itree="1">
      <Node pos="s" depth="0" NCoef="0" IVar="6" Cut="4.7565379738807678e-01" cType="0" res="-9.9000000000000000e+01" rms="0.0000000000000000e+00" purity="4.9843364953994751e-01" nType="0">
        <Node pos="l" depth="1" NCoef="0" IVar="7" Cut="4.7597181797027588e-01" cType="0" res="-9.9000000000000000e+01" rms="0.0000000000000000e+00" purity="5.7077360153198242e-01" nType="0">
          <Node pos="l" depth="2" NCoef="0" IVar="-1" Cut="6.2528920173645020e-01" cType="0" res="-9.9000000000000000e+01" rms="0.0000000000000000e+00" purity="6.3103622198104858e-01" nType="1"/>
          <Node pos="r" depth="2" NCoef="0" IVar="6" Cut="9.1396379470825195e-01" cType="0" res="-9.9000000000000000e+01" rms="0.0000000000000000e+00" purity="5.1067781448364258e-01" nType="0">
            <Node pos="l" depth="3" NCoef="0" IVar="-1" Cut="0.0000000000000000e+00" cType="1" res="-9.9000000000000000e+01" rms="0.0000000000000000e+00" purity="5.6106084585189819e-01" nType="1"/>
            <Node pos="r" depth="3" NCoef="0" IVar="-1" Cut="0.0000000000000000e+00" cType="1" res="-9.9000000000000000e+01" rms="0.0000000000000000e+00" purity="4.5686477422714233e-01" nType="-1"/>
          </Node>
        </Node>
        <Node pos="r" depth="1" NCoef="0" IVar="5" Cut="9.8095238208770752e-01" cType="0" res="-9.9000000000000000e+01" rms="0.0000000000000000e+00" purity="4.4803878664970398e-01" nType="0">
          <Node pos="l" depth="2" NCoef="0" IVar="0" Cut="1.0954891204833984e+02" cType="1" res="-9.9000000000000000e+01" rms="0.0000000000000000e+00" purity="4.9043002724647522e-01" nType="0">
            <Node pos="l" depth="3" NCoef="0" IVar="-1" Cut="0.0000000000000000e+00" cType="1" res="-9.9000000000000000e+01" rms="0.0000000000000000e+00" purity="5.3165715932846069e-01" nType="1"/>
            <Node pos="r" depth="3" NCoef="0" IVar="-1" Cut="0.0000000000000000e+00" cType="1" res="-9.9000000000000000e+01" rms="0.0000000000000000e+00" purity="4.5553979277610779e-01" nType="-1"/>
          </Node>
          <Node pos="r" depth="2" NCoef="0" IVar="-1" Cut="3.1246719360351562e+00" cType="1" res="-9.9000000000000000e+01" rms="0.0000000000000000e+00" purity="4.1716605424880981e-01" nType="-1"/>
        </Node>
      </Node>
    </BinaryTree>
    <BinaryTree type="DecisionTree" boostWeight="1.1536858545778307e-01" itree="2">
      <Node pos="s" depth="0" NCoef="0" IVar="6" Cut="4.7565379738807678e-01" cType="0" res="-9.9000000000000000e+01" rms="0.0000000000000000e+00" purity="5.0417149066925049e-01" nType="0">
        <Node pos="l" depth="1" NCoef="0" IVar="7" Cut="4.7597181797027588e-01" cType="0" res="-9.9000000000000000e+01" rms="0.0000000000000000e+00" purity="5.5192071199417114e-01" nType="0">
          <Node pos="l" depth="2" NCoef="0" IVar="-1" Cut="6.5022796392440796e-01" cType="0" res="-9.9000000000000000e+01" rms="0.0000000000000000e+00" purity="5.9497326612472534e-01" nType="1"/>
          <Node pos="r" depth="2" NCoef="0" IVar="3" Cut="1.7843730449676514e+00" cType="1" res="-9.9000000000000000e+01" rms="0.0000000000000000e+00" purity="5.0950407981872559e-01" nType="0">
            <Node pos="l" depth="3" NCoef="0" IVar="-1" Cut="0.0000000000000000e+00" cType="1" res="-9.9000000000000000e+01" rms="0.0000000000000000e+00" purity="5.6338638067245483e-01" nType="1"/>
            <Node pos="r" depth="3" NCoef="0" IVar="-1" Cut="0.0000000000000000e+00" cType="1" res="-9.9000000000000000e+01" rms="0.0000000000000000e+00" purity="4.7062072157859802e-01" nType="-1"/>
          </Node>
        </Node>
        <Node pos="r" depth="1" NCoef="0" IVar="0" Cut="1.5530709838867188e+02" cType="0" res="-9.9000000000000000e+01" rms="0.0000000000000000e+00" purity="4.7104758024215698e-01" nType="0">
          <Node pos="l" depth="2" NCoef="0" IVar="-1" Cut="0.0000000000000000e+00" cType="1" res="-9.9000000000000000e+01" rms="0.0000000000000000e+00" purity="5.8415162563323975e-01" nType="1"/>
          <Node pos="r" depth="2" NCoef="0" IVar="4" Cut="3.1246719360351562e+00" cType="1" res="-9.9000000000000000e+01" rms="0.0000000000000000e+00" purity="4.5808935165405273e-01" nType="0">
            <Node pos="l" depth="3" NCoef="0" IVar="-1" Cut="0.0000000000000000e+00" cType="1" res="-9.9000000000000000e+01" rms="0.0000000000000000e+00" purity="5.0376743078231812e-01" nType="1"/>
            <Node pos="r" depth="3" NCoef="0" IVar="-1" Cut="0.0000000000000000e+00" cType="1" res="-9.9000000000000000e+01" rms="0.0000000000000000e+00" purity="4.2002958059310913e-01" nType="-1"/>
          </Node>
        </Node>
      </Node>
    </BinaryTree>
    <BinaryTree type="DecisionTree" boostWeight="1.1613719714782249e-01" itree="3">
      <Node pos="s" depth="0" NCoef="0" IVar="6" Cut="4.7565379738807678e-01" cType="0" res="-9.9000000000000000e+01" rms="0.0000000000000000e+00" purity="4.9890914559364319e-01" nType="0">
        <Node pos="l" depth="1" NCoef="0" IVar="5" Cut="9.8095250129699707e-01" cType="0" res="-9.9000000000000000e+01" rms="0.0000000000000000e+00" purity="5.4029005765914917e-01" nType="0">
          <Node pos="l" depth="2" NCoef="0" IVar="-1" Cut="4.7597181797027588e-01" cType="0" res="-9.9000000000000000e+01" rms="0.0000000000000000e+00" purity="5.7314884662628174e-01" nType="1"/>
          <Node pos="r" depth="2" NCoef="0" IVar="3" Cut="1.7826075553894043e+00" cType="1" res="-9.9000000000000000e+01" rms="0.0000000000000000e+00" purity="4.9493789672851562e-01" nType="0">
            <Node pos="l" depth="3" NCoef="0" IVar="-1" Cut="0.0000000000000000e+00" cType="1" res="-9.9000000000000000e+01" rms="0.0000000000000000e+00" purity="5.3852951526641846e-01" nType="1"/>
            <Node pos="r" depth="3" NCoef="0" IVar="-1" Cut="0.0000000000000000e+00" cType="1" res="-9.9000000000000000e+01" rms="0.0000000000000000e+00" purity="4.5647779107093811e-01" nType="-1"/>
          </Node>
        </Node>
        <Node pos="r" depth="1" NCoef="0" IVar="3" Cut="8.6565160751342773e-01" cType="1" res="-9.9000000000000000e+01" rms="0.0000000000000000e+00" purity="4.7026881575584412e-01" nType="0">
          <Node pos="l" depth="2" NCoef="0" IVar="-1" Cut="0.0000000000000000e+00" cType="1" res="-9.9000000000000000e+01" rms="0.0000000000000000e+00" purity="5.5992895364761353e-01" nType="1"/>
          <Node pos="r" depth="2" NCoef="0" IVar="0" Cut="1.6469264221191406e+02" cType="0" res="-9.9000000000000000e+01" rms="0.0000000000000000e+00" purity="4.5888632535934448e-01" nType="0">
            <Node pos="l" depth="3" NCoef="0" IVar="-1" Cut="0.0000000000000000e+00" cType="1" res="-9.9000000000000000e+01" rms="0.0000000000000000e+00" purity="5.7784175872802734e-01" nType="1"/>
            <Node pos="r" depth="3" NCoef="0" IVar="-1" Cut="0.0000000000000000e+00" cType="1" res="-9.9000000000000000e+01" rms="0.0000000000000000e+00" purity="4.4626232981681824e-01" nType="-1"/>
          </Node>
        </Node>
      </Node>
    </BinaryTree>
    <BinaryTree type="DecisionTree" boostWeight="6.0491761115446317e-02" itree="4">
      <Node pos="s" depth="0" NCoef="0" IVar="5" Cut="9.0476202964782715e-01" cType="0" res="-9.9000000000000000e+01" rms="0.0000000000000000e+00" purity="5.0271999835968018e-01" nType="0">
        <Node pos="l" depth="1" NCoef="0" IVar="4" Cut="2.7444620132446289e+00" cType="1" res="-9.9000000000000000e+01" rms="0.0000000000000000e+00" purity="5.1669228076934814e-01" nType="0">
          <Node pos="l" depth="2" NCoef="0" IVar="-1" Cut="0.0000000000000000e+00" cType="1" res="-9.9000000000000000e+01" rms="0.0000000000000000e+00" purity="5.6874132156372070e-01" nType="1"/>
          <Node pos="r" depth="2" NCoef="0" IVar="3" Cut="1.3453423976898193e+00" cType="1" res="-9.9000000000000000e+01" rms="0.0000000000000000e+00" purity="5.0742709636688232e-01" nType="0">
            <Node pos="l" depth="3" NCoef="0" IVar="-1" Cut="0.0000000000000000e+00" cType="1" res="-9.9000000000000000e+01" rms="0.0000000000000000e+00" purity="5.3997361660003662e-01" nType="1"/>
            <Node pos="r" depth="3" NCoef="0" IVar="-1" Cut="0.0000000000000000e+00" cType="1" res="-9.9000000000000000e+01" rms="0.0000000000000000e+00" purity="4.9357852339744568e-01" nType="-1"/>
          </Node>
        </Node>
        <Node pos="r" depth="1" NCoef="0" IVar="-1" Cut="3.8474723696708679e-01" cType="0" res="-9.9000000000000000e+01" rms="0.0000000000000000e+00" purity="4.4594267010688782e-01" nType="-1"/>
      </Node>
    </BinaryTree>
    <BinaryTree type="DecisionTree" boostWeight="6.3760389660068681e-02" itree="5">
      <Node pos="s" depth="0" NCoef="0" IVar="5" Cut="9.5238101482391357e-01" cType="0" res="-9.9000000000000000e+01" rms="0.0000000000000000e+00" purity="5.0803774595260620e-01" nType="0">
        <Node pos="l" depth="1" NCoef="0" IVar="4" Cut="3.8326525688171387e+00" cType="1" res="-9.9000000000000000e+01" rms="0.0000000000000000e+00" purity="5.2540171146392822e-01" nType="0">
          <Node pos="l" depth="2" NCoef="0" IVar="-1" Cut="4.7565183043479919e-01" cType="0" res="-9.9000000000000000e+01" rms="0.0000000000000000e+00" purity="5.3306978940963745e-01" nType="1"/>
          <Node pos="r" depth="2" NCoef="0" IVar="1" Cut="2.6815626025199890e-01" cType="1" res="-9.9000000000000000e+01" rms="0.0000000000000000e+00" purity="4.8596429824829102e-01" nType="0">
            <Node pos="l" depth="3" NCoef="0" IVar="-1" Cut="0.0000000000000000e+00" cType="1" res="-9.9000000000000000e+01" rms="0.0000000000000000e+00" purity="5.0802713632583618e-01" nType="1"/>
            <Node pos="r" depth="3" NCoef="0" IVar="-1" Cut="0.0000000000000000e+00" cType="1" res="-9.9000000000000000e+01" rms="0.0000000000000000e+00" purity="4.6503418684005737e-01" nType="-1"/>
          </Node>
        </Node>
        <Node pos="r" depth="1" NCoef="0" IVar="2" Cut="1.8121400451660156e+02" cType="0" res="-9.9000000000000000e+01" rms="0.0000000000000000e+00" purity="4.7550946474075317e-01" nType="0">
          <Node pos="l" depth="2" NCoef="0" IVar="5" Cut="8.9433044195175171e-01" cType="0" res="-9.9000000000000000e+01" rms="0.0000000000000000e+00" purity="5.0327348709106445e-01" nType="0">
            <Node pos="l" depth="3" NCoef="0" IVar="-1" Cut="0.0000000000000000e+00" cType="1" res="-9.9000000000000000e+01" rms="0.0000000000000000e+00" purity="5.2023774385452271e-01" nType="1"/>
            <Node pos="r" depth="3" NCoef="0" IVar="-1" Cut="0.0000000000000000e+00" cType="1" res="-9.9000000000000000e+01" rms="0.0000000000000000e+00" purity="4.8610809445381165e-01" nType="-1"/>
          </Node>
          <Node pos="r" depth="2" NCoef="0" IVar="-1" Cut="3.1390867233276367e+00" cType="1" res="-9.9000000000000000e+01" rms="0.0000000000000000e+00" purity="4.5577311515808105e-01" nType="-1"/>
        </Node>
      </Node>
    </BinaryTree>
    <BinaryTree type="DecisionTree" boostWeight="5.2665249520305317e-02" itree="6">
      <Node pos="s" depth="0" NCoef="0" IVar="5" Cut="9.9047619104385376e-01" cType="0" res="-9.9000000000000000e+01" rms="0.0000000000000000e+00" purity="5.0261777639389038e-01" nType="0">
        <Node pos="l" depth="1" NCoef="0" IVar="0" Cut="1.0962888336181641e+02" cType="0" res="-9.9000000000000000e+01" rms="0.0000000000000000e+00" purity="5.2550894021987915e-01" nType="0">
          <Node pos="l" depth="2" NCoef="0" IVar="-1" Cut="4.7561877965927124e-01" cType="0" res="-9.9000000000000000e+01" rms="0.0000000000000000e+00" purity="5.4474496841430664e-01" nType="1"/>
          <Node pos="r" depth="2" NCoef="0" IVar="1" Cut="1.3849107921123505e-01" cType="0" res="-9.9000000000000000e+01" rms="0.0000000000000000e+00" purity="5.0063109397888184e-01" nType="0">
            <Node pos="l" depth="3" NCoef="0" IVar="-1" Cut="0.0000000000000000e+00" cType="1" res="-9.9000000000000000e+01" rms="0.0000000000000000e+00" purity="5.1650464534759521e-01" nType="1"/>
            <Node pos="r" depth="3" NCoef="0" IVar="-1" Cut="0.0000000000000000e+00" cType="1" res="-9.9000000000000000e+01" rms="0.0000000000000000e+00" purity="4.8148030042648315e-01" nType="-1"/>
          </Node>
        </Node>
        <Node pos="r" depth="1" NCoef="0" IVar="4" Cut="2.7444620132446289e+00" cType="1" res="-9.9000000000000000e+01" rms="0.0000000000000000e+00" purity="4.8896688222885132e-01" nType="0">
          <Node pos="l" depth="2" NCoef="0" IVar="-1" Cut="0.0000000000000000e+00" cType="1" res="-9.9000000000000000e+01" rms="0.0000000000000000e+00" purity="5.3340494632720947e-01" nType="1"/>
          <Node pos="r" depth="2" NCoef="0" IVar="2" Cut="1.8102597045898438e+02" cType="0" res="-9.9000000000000000e+01" rms="0.0000000000000000e+00" purity="4.8165753483772278e-01" nType="0">
            <Node pos="l" depth="3" NCoef="0" IVar="-1" Cut="0.0000000000000000e+00" cType="1" res="-9.9000000000000000e+01" rms="0.0000000000000000e+00" purity="5.0264894962310791e-01" nType="1"/>
            <Node pos="r" depth="3" NCoef="0" IVar="-1" Cut="0.0000000000000000e+00" cType="1" res="-9.9000000000000000e+01" rms="0.0000000000000000e+00" purity="4.6591377258300781e-01" nType="-1"/>
          </Node>
        </Node>
      </Node>
    </BinaryTree>
    <BinaryTree type="DecisionTree" boostWeight="7.1938159361662049e-02" itree="7">
      <Node pos="s" depth="0" NCoef="0" IVar="6" Cut="4.7565379738807678e-01" cType="0" res="-9.9000000000000000e+01" rms="0.0000000000000000e+00" purity="4.9949011206626892e-01" nType="0">
        <Node pos="l" depth="1" NCoef="0" IVar="7" Cut="4.7597181797027588e-01" cType="0" res="-9.9000000000000000e+01" rms="0.0000000000000000e+00" purity="5.1777994632720947e-01" nType="0">
          <Node pos="l" depth="2" NCoef="0" IVar="6" Cut="6.2528920173645020e-01" cType="0" res="-9.9000000000000000e+01" rms="0.0000000000000000e+00" purity="5.5064690113067627e-01" nType="0">
            <Node pos="l" depth="3" NCoef="0" IVar="-1" Cut="0.0000000000000000e+00" cType="1" res="-9.9000000000000000e+01" rms="0.0000000000000000e+00" purity="5.8842605352401733e-01" nType="1"/>
            <Node pos="r" depth="3" NCoef="0" IVar="-1" Cut="0.0000000000000000e+00" cType="1" res="-9.9000000000000000e+01" rms="0.0000000000000000e+00" purity="4.7688591480255127e-01" nType="-1"/>
          </Node>
          <Node pos="r" depth="2" NCoef="0" IVar="0" Cut="1.0865609741210938e+02" cType="0" res="-9.9000000000000000e+01" rms="0.0000000000000000e+00" purity="4.8582220077514648e-01" nType="0">
            <Node pos="l" depth="3" NCoef="0" IVar="-1" Cut="0.0000000000000000e+00" cType="1" res="-9.9000000000000000e+01" rms="0.0000000000000000e+00" purity="5.2156162261962891e-01" nType="1"/>
            <Node pos="r" depth="3" NCoef="0" IVar="-1" Cut="0.0000000000000000e+00" cType="1" res="-9.9000000000000000e+01" rms="0.0000000000000000e+00" purity="4.3301668763160706e-01" nType="-1"/>
          </Node>
        </Node>
        <Node pos="r" depth="1" NCoef="0" IVar="7" Cut="9.0473186969757080e-01" cType="0" res="-9.9000000000000000e+01" rms="0.0000000000000000e+00" purity="4.8686629533767700e-01" nType="0">
          <Node pos="l" depth="2" NCoef="0" IVar="0" Cut="8.6368507385253906e+01" cType="1" res="-9.9000000000000000e+01" rms="0.0000000000000000e+00" purity="4.9721035361289978e-01" nType="0">
            <Node pos="l" depth="3" NCoef="0" IVar="-1" Cut="0.0000000000000000e+00" cType="1" res="-9.9000000000000000e+01" rms="0.0000000000000000e+00" purity="5.3502911329269409e-01" nType="1"/>
            <Node pos="r" depth="3" NCoef="0" IVar="-1" Cut="0.0000000000000000e+00" cType="1" res="-9.9000000000000000e+01" rms="0.0000000000000000e+00" purity="4.8748907446861267e-01" nType="-1"/>
          </Node>
          <Node pos="r" depth="2" NCoef="0" IVar="-1" Cut="1.1081010437011719e+02" cType="1" res="-9.9000000000000000e+01" rms="0.0000000000000000e+00" purity="4.5218503475189209e-01" nType="-1"/>
        </Node>
      </Node>
    </BinaryTree>
    <BinaryTree type="DecisionTree" boostWeight="3.5519781537578420e-02" itree="8">
      <Node pos="s" depth="0" NCoef="0" IVar="0" Cut="1.7771678161621094e+02" cType="0" res="-9.9000000000000000e+01" rms="0.0000000000000000e+00" purity="5.0490331649780273e-01" nType="0">
        <Node pos="l" depth="1" NCoef="0" IVar="-1" Cut="0.0000000000000000e+00" cType="1" res="-9.9000000000000000e+01" rms="0.0000000000000000e+00" purity="5.5911773443222046e-01" nType="1"/>
        <Node pos="r" depth="1" NCoef="0" IVar="4" Cut="3.8326525688171387e+00" cType="1" res="-9.9000000000000000e+01" rms="0.0000000000000000e+00" purity="5.0115644931793213e-01" nType="0">
          <Node pos="l" depth="2" NCoef="0" IVar="4" Cut="2.9258246421813965e+00" cType="1" res="-9.9000000000000000e+01" rms="0.0000000000000000e+00" purity="5.0734800100326538e-01" nType="0">
            <Node pos="l" depth="3" NCoef="0" IVar="-1" Cut="0.0000000000000000e+00" cType="1" res="-9.9000000000000000e+01" rms="0.0000000000000000e+00" purity="5.3209918737411499e-01" nType="1"/>
            <Node pos="r" depth="3" NCoef="0" IVar="-1" Cut="0.0000000000000000e+00" cType="1" res="-9.9000000000000000e+01" rms="0.0000000000000000e+00" purity="4.9688243865966797e-01" nType="-1"/>
          </Node>
          <Node pos="r" depth="2" NCoef="0" IVar="-1" Cut="9.9012601375579834e-01" cType="0" res="-9.9000000000000000e+01" rms="0.0000000000000000e+00" purity="4.6833929419517517e-01" nType="-1"/>
        </Node>
      </Node>
    </BinaryTree>
    <BinaryTree type="DecisionTree" boostWeight="3.6644138681406577e-02" itree="9">
      <Node pos="s" depth="0" NCoef="0" IVar="5" Cut="9.9047619104385376e-01" cType="0" res="-9.9000000000000000e+01" rms="0.0000000000000000e+00" purity="5.0848710536956787e-01" nType="0">
        <Node pos="l" depth="1" NCoef="0" IVar="7" Cut="4.7597181797027588e-01" cType="0" res="-9.9000000000000000e+01" rms="0.0000000000000000e+00" purity="5.2480185031890869e-01" nType="0">
          <Node pos="l" depth="2" NCoef="0" IVar="-1" Cut="4.7559112310409546e-01" cType="0" res="-9.9000000000000000e+01" rms="0.0000000000000000e+00" purity="5.3640031814575195e-01" nType="1"/>
          <Node pos="r" depth="2" NCoef="0" IVar="-1" Cut="0.0000000000000000e+00" cType="1" res="-9.9000000000000000e+01" rms="0.0000000000000000e+00" purity="4.9753758311271667e-01" nType="-1"/>
        </Node>
        <Node pos="r" depth="1" NCoef="0" IVar="4" Cut="3.8326525688171387e+00" cType="1" res="-9.9000000000000000e+01" rms="0.0000000000000000e+00" purity="4.9876740574836731e-01" nType="0">
          <Node pos="l" depth="2" NCoef="0" IVar="3" Cut="1.1093264818191528e+00" cType="1" res="-9.9000000000000000e+01" rms="0.0000000000000000e+00" purity="5.0544810295104980e-01" nType="0">
            <Node pos="l" depth="3" NCoef="0" IVar="-1" Cut="0.0000000000000000e+00" cType="1" res="-9.9000000000000000e+01" rms="0.0000000000000000e+00" purity="5.3422951698303223e-01" nType="1"/>
            <Node pos="r" depth="3" NCoef="0" IVar="-1" Cut="0.0000000000000000e+00" cType="1" res="-9.9000000000000000e+01" rms="0.0000000000000000e+00" purity="4.9750423431396484e-01" nType="-1"/>
          </Node>
          <Node pos="r" depth="2" NCoef="0" IVar="-1" Cut="2.7032038569450378e-01" cType="1" res="-9.9000000000000000e+01" rms="0.0000000000000000e+00" purity="4.6535918116569519e-01" nType="-1"/>
        </Node>
      </Node>
    </BinaryTree>
    <BinaryTree type="DecisionTree" boostWeight="4.3799252944587336e-02" itree="10">
      <Node pos="s" depth="0" NCoef="0" IVar="4" Cut="3.8326525688171387e+00" cType="1" res="-9.9000000000000000e+01" rms="0.0000000000000000e+00" purity="5.1078659296035767e-01" nType="0">
        <Node pos="l" depth="1" NCoef="0" IVar="0" Cut="1.5469656372070312e+02" cType="0" res="-9.9000000000000000e+01" rms="0.0000000000000000e+00" purity="5.1597899198532104e-01" nType="0">
          <Node pos="l" depth="2" NCoef="0" IVar="-1" Cut="0.0000000000000000e+00" cType="1" res="-9.9000000000000000e+01" rms="0.0000000000000000e+00" purity="5.6105214357376099e-01" nType="1"/>
          <Node pos="r" depth="2" NCoef="0" IVar="0" Cut="1.2838633728027344e+02" cType="1" res="-9.9000000000000000e+01" rms="0.0000000000000000e+00" purity="5.1159191131591797e-01" nType="0">
            <Node pos="l" depth="3" NCoef="0" IVar="-1" Cut="0.0000000000000000e+00" cType="1" res="-9.9000000000000000e+01" rms="0.0000000000000000e+00" purity="5.1829558610916138e-01" nType="1"/>
            <Node pos="r" depth="3" NCoef="0" IVar="-1" Cut="0.0000000000000000e+00" cType="1" res="-9.9000000000000000e+01" rms="0.0000000000000000e+00" purity="4.8552107810974121e-01" nType="-1"/>
          </Node>
        </Node>
        <Node pos="r" depth="1" NCoef="0" IVar="2" Cut="1.6372846984863281e+02" cType="0" res="-9.9000000000000000e+01" rms="0.0000000000000000e+00" purity="4.8450139164924622e-01" nType="0">
          <Node pos="l" depth="2" NCoef="0" IVar="5" Cut="9.7111397981643677e-01" cType="0" res="-9.9000000000000000e+01" rms="0.0000000000000000e+00" purity="4.9641633033752441e-01" nType="0">
            <Node pos="l" depth="3" NCoef="0" IVar="-1" Cut="0.0000000000000000e+00" cType="1" res="-9.9000000000000000e+01" rms="0.0000000000000000e+00" purity="5.1166987419128418e-01" nType="1"/>
            <Node pos="r" depth="3" NCoef="0" IVar="-1" Cut="0.0000000000000000e+00" cType="1" res="-9.9000000000000000e+01" rms="0.0000000000000000e+00" purity="4.7758343815803528e-01" nType="-1"/>
          </Node>
          <Node pos="r" depth="2" NCoef="0" IVar="-1" Cut="0.0000000000000000e+00" cType="1" res="-9.9000000000000000e+01" rms="0.0000000000000000e+00" purity="4.5733809471130371e-01" nType="-1"/>
        </Node>
      </Node>
    </BinaryTree>
    <BinaryTree type="DecisionTree" boostWeight="4.7157261124691555e-02" itree="11">
      <Node pos="s" depth="0" NCoef="0" IVar="0" Cut="1.7771678161621094e+02" cType="0" res="-9.9000000000000000e+01" rms="0.0000000000000000e+00" purity="5.0547665357589722e-01" nType="0">
        <Node pos="l" depth="1" NCoef="0" IVar="-1" Cut="0.0000000000000000e+00" cType="1" res="-9.9000000000000000e+01" rms="0.0000000000000000e+00" purity="5.4739528894424438e-01" nType="1"/>
        <Node pos="r" depth="1" NCoef="0" IVar="6" Cut="4.7565379738807678e-01" cType="0" res="-9.9000000000000000e+01" rms="0.0000000000000000e+00" purity="5.0258672237396240e-01" nType="0">
          <Node pos="l" depth="2" NCoef="0" IVar="7" Cut="4.7597181797027588e-01" cType="0" res="-9.9000000000000000e+01" rms="0.0000000000000000e+00" purity="5.1686978340148926e-01" nType="0">
            <Node pos="l" depth="3" NCoef="0" IVar="-1" Cut="0.0000000000000000e+00" cType="1" res="-9.9000000000000000e+01" rms="0.0000000000000000e+00" purity="5.4658567905426025e-01" nType="1"/>
            <Node pos="r" depth="3" NCoef="0" IVar="-1" Cut="0.0000000000000000e+00" cType="1" res="-9.9000000000000000e+01" rms="0.0000000000000000e+00" purity="4.8809835314750671e-01" nType="-1"/>
          </Node>
          <Node pos="r" depth="2" NCoef="0" IVar="7" Cut="9.9042117595672607e-01" cType="0" res="-9.9000000000000000e+01" rms="0.0000000000000000e+00" purity="4.9256503582000732e-01" nType="0">
            <Node pos="l" depth="3" NCoef="0" IVar="-1" Cut="0.0000000000000000e+00" cType="1" res="-9.9000000000000000e+01" rms="0.0000000000000000e+00" purity="5.1431816816329956e-01" nType="1"/>
            <Node pos="r" depth="3" NCoef="0" IVar="-1" Cut="0.0000000000000000e+00" cType="1" res="-9.9000000000000000e+01" rms="0.0000000000000000e+00" purity="4.8169857263565063e-01" nType="-1"/>
          </Node>
        </Node>
      </Node>
    </BinaryTree>
    <BinaryTree type="DecisionTree" boostWeight="3.9974557841329292e-02" itree="12">
      <Node pos="s" depth="0" NCoef="0" IVar="2" Cut="2.0096183776855469e+02" cType="0" res="-9.9000000000000000e+01" rms="0.0000000000000000e+00" purity="5.0696033239364624e-01" nType="0">
        <Node pos="l" depth="1" NCoef="0" IVar="1" Cut="-2.4079481139779091e-02" cType="0" res="-9.9000000000000000e+01" rms="0.0000000000000000e+00" purity="5.2448284626007080e-01" nType="0">
          <Node pos="l" depth="2" NCoef="0" IVar="-1" Cut="9.9013012647628784e-01" cType="0" res="-9.9000000000000000e+01" rms="0.0000000000000000e+00" purity="5.4692119359970093e-01" nType="1"/>
          <Node pos="r" depth="2" NCoef="0" IVar="-1" Cut="0.0000000000000000e+00" cType="1" res="-9.9000000000000000e+01" rms="0.0000000000000000e+00" purity="4.8098698258399963e-01" nType="-1"/>
        </Node>
        <Node pos="r" depth="1" NCoef="0" IVar="5" Cut="8.7619060277938843e-01" cType="0" res="-9.9000000000000000e+01" rms="0.0000000000000000e+00" purity="5.0071269273757935e-01" nType="0">
          <Node pos="l" depth="2" NCoef="0" IVar="4" Cut="3.8326525688171387e+00" cType="1" res="-9.9000000000000000e+01" rms="0.0000000000000000e+00" purity="5.0519686937332153e-01" nType="0">
            <Node pos="l" depth="3" NCoef="0" IVar="-1" Cut="0.0000000000000000e+00" cType="1" res="-9.9000000000000000e+01" rms="0.0000000000000000e+00" purity="5.0984120368957520e-01" nType="1"/>
            <Node pos="r" depth="3" NCoef="0" IVar="-1" Cut="0.0000000000000000e+00" cType="1" res="-9.9000000000000000e+01" rms="0.0000000000000000e+00" purity="4.7923976182937622e-01" nType="-1"/>
          </Node>
          <Node pos="r" depth="2" NCoef="0" IVar="-1" Cut="0.0000000000000000e+00" cType="1" res="-9.9000000000000000e+01" rms="0.0000000000000000e+00" purity="4.7157487273216248e-01" nType="-1"/>
        </Node>
      </Node>
    </BinaryTree>
    <BinaryTree type="DecisionTree" boostWeight="3.0060573890793033e-02" itree="13">
      <Node pos="s" depth="0" NCoef="0" IVar="2" Cut="2.0096183776855469e+02" cType="0" res="-9.9000000000000000e+01" rms="0.0000000000000000e+00" purity="5.0266015529632568e-01" nType="0">
        <Node pos="l" depth="1" NCoef="0" IVar="1" Cut="1.8634308874607086e-01" cType="0" res="-9.9000000000000000e+01" rms="0.0000000000000000e+00" purity="5.2132350206375122e-01" nType="0">
          <Node pos="l" depth="2" NCoef="0" IVar="-1" Cut="0.0000000000000000e+00" cType="1" res="-9.9000000000000000e+01" rms="0.0000000000000000e+00" purity="5.6269866228103638e-01" nType="1"/>
          <Node pos="r" depth="2" NCoef="0" IVar="0" Cut="1.0934803771972656e+02" cType="0" res="-9.9000000000000000e+01" rms="0.0000000000000000e+00" purity="5.0795662403106689e-01" nType="0">
            <Node pos="l" depth="3" NCoef="0" IVar="-1" Cut="0.0000000000000000e+00" cType="1" res="-9.9000000000000000e+01" rms="0.0000000000000000e+00" purity="5.3160333633422852e-01" nType="1"/>
            <Node pos="r" depth="3" NCoef="0" IVar="-1" Cut="0.0000000000000000e+00" cType="1" res="-9.9000000000000000e+01" rms="0.0000000000000000e+00" purity="4.8751699924468994e-01" nType="-1"/>
          </Node>
        </Node>
        <Node pos="r" depth="1" NCoef="0" IVar="0" Cut="1.5469656372070312e+02" cType="0" res="-9.9000000000000000e+01" rms="0.0000000000000000e+00" purity="4.9601209163665771e-01" nType="0">
          <Node pos="l" depth="2" NCoef="0" IVar="-1" Cut="0.0000000000000000e+00" cType="1" res="-9.9000000000000000e+01" rms="0.0000000000000000e+00" purity="5.2583986520767212e-01" nType="1"/>
          <Node pos="r" depth="2" NCoef="0" IVar="-1" Cut="1.2838764953613281e+02" cType="1" res="-9.9000000000000000e+01" rms="0.0000000000000000e+00" purity="4.9268272519111633e-01" nType="-1"/>
        </Node>
      </Node>
    </BinaryTree>
    <BinaryTree type="DecisionTree" boostWeight="2.9901020499353420e-02" itree="14">
      <Node pos="s" depth="0" NCoef="0" IVar="2" Cut="1.6109008789062500e+02" cType="0" res="-9.9000000000000000e+01" rms="0.0000000000000000e+00" purity="5.0671792030334473e-01" nType="0">
        <Node pos="l" depth="1" NCoef="0" IVar="5" Cut="9.9047619104385376e-01" cType="0" res="-9.9000000000000000e+01" rms="0.0000000000000000e+00" purity="5.1226121187210083e-01" nType="0">
          <Node pos="l" depth="2" NCoef="0" IVar="-1" Cut="4.7565379738807678e-01" cType="0" res="-9.9000000000000000e+01" rms="0.0000000000000000e+00" purity="5.2537876367568970e-01" nType="1"/>
          <Node pos="r" depth="2" NCoef="0" IVar="3" Cut="2.5254914760589600e+00" cType="1" res="-9.9000000000000000e+01" rms="0.0000000000000000e+00" purity="5.0445586442947388e-01" nType="0">
            <Node pos="l" depth="3" NCoef="0" IVar="-1" Cut="0.0000000000000000e+00" cType="1" res="-9.9000000000000000e+01" rms="0.0000000000000000e+00" purity="5.0949430465698242e-01" nType="1"/>
            <Node pos="r" depth="3" NCoef="0" IVar="-1" Cut="0.0000000000000000e+00" cType="1" res="-9.9000000000000000e+01" rms="0.0000000000000000e+00" purity="4.8627337813377380e-01" nType="-1"/>
          </Node>
        </Node>
        <Node pos="r" depth="1" NCoef="0" IVar="4" Cut="2.9709811210632324e+00" cType="1" res="-9.9000000000000000e+01" rms="0.0000000000000000e+00" purity="4.9381291866302490e-01" nType="0">
          <Node pos="l" depth="2" NCoef="0" IVar="-1" Cut="0.0000000000000000e+00" cType="1" res="-9.9000000000000000e+01" rms="0.0000000000000000e+00" purity="5.0866258144378662e-01" nType="1"/>
          <Node pos="r" depth="2" NCoef="0" IVar="1" Cut="1.1818452179431915e-01" cType="1" res="-9.9000000000000000e+01" rms="0.0000000000000000e+00" purity="4.8735573887825012e-01" nType="0">
            <Node pos="l" depth="3" NCoef="0" IVar="-1" Cut="0.0000000000000000e+00" cType="1" res="-9.9000000000000000e+01" rms="0.0000000000000000e+00" purity="5.0287443399429321e-01" nType="1"/>
            <Node pos="r" depth="3" NCoef="0" IVar="-1" Cut="0.0000000000000000e+00" cType="1" res="-9.9000000000000000e+01" rms="0.0000000000000000e+00" purity="4.8174005746841431e-01" nType="-1"/>
          </Node>
        </Node>
      </Node>
    </BinaryTree>
    <BinaryTree type="DecisionTree" boostWeight="3.2476372263710661e-02" itree="15">
      <Node pos="s" depth="0" NCoef="0" IVar="1" Cut="3.2662481069564819e-01" cType="0" res="-9.9000000000000000e+01" rms="0.0000000000000000e+00" purity="5.0296586751937866e-01" nType="0">
        <Node pos="l" depth="1" NCoef="0" IVar="6" Cut="4.7563189268112183e-01" cType="0" res="-9.9000000000000000e+01" rms="0.0000000000000000e+00" purity="5.1850068569183350e-01" nType="0">
          <Node pos="l" depth="2" NCoef="0" IVar="-1" Cut="0.0000000000000000e+00" cType="1" res="-9.9000000000000000e+01" rms="0.0000000000000000e+00" purity="5.6631386280059814e-01" nType="1"/>
          <Node pos="r" depth="2" NCoef="0" IVar="3" Cut="1.4626572132110596e+00" cType="0" res="-9.9000000000000000e+01" rms="0.0000000000000000e+00" purity="4.9000072479248047e-01" nType="0">
            <Node pos="l" depth="3" NCoef="0" IVar="-1" Cut="0.0000000000000000e+00" cType="1" res="-9.9000000000000000e+01" rms="0.0000000000000000e+00" purity="5.0563853979110718e-01" nType="1"/>
            <Node pos="r" depth="3" NCoef="0" IVar="-1" Cut="0.0000000000000000e+00" cType="1" res="-9.9000000000000000e+01" rms="0.0000000000000000e+00" purity="4.7243902087211609e-01" nType="-1"/>
          </Node>
        </Node>
        <Node pos="r" depth="1" NCoef="0" IVar="7" Cut="4.7613546252250671e-01" cType="0" res="-9.9000000000000000e+01" rms="0.0000000000000000e+00" purity="4.9911665916442871e-01" nType="0">
          <Node pos="l" depth="2" NCoef="0" IVar="-1" Cut="4.7559112310409546e-01" cType="0" res="-9.9000000000000000e+01" rms="0.0000000000000000e+00" purity="5.0690311193466187e-01" nType="1"/>
          <Node pos="r" depth="2" NCoef="0" IVar="-1" Cut="1.0865609741210938e+02" cType="0" res="-9.9000000000000000e+01" rms="0.0000000000000000e+00" purity="4.7165432572364807e-01" nType="-1"/>
        </Node>
      </Node>
    </BinaryTree>
    <BinaryTree type="DecisionTree" boostWeight="3.4387755473073676e-02" itree="16">
      <Node pos="s" depth="0" NCoef="0" IVar="6" Cut="4.7565379738807678e-01" cType="0" res="-9.9000000000000000e+01" rms="0.0000000000000000e+00" purity="4.9867278337478638e-01" nType="0">
        <Node pos="l" depth="1" NCoef="0" IVar="1" Cut="4.0613789111375809e-02" cType="0" res="-9.9000000000000000e+01" rms="0.0000000000000000e+00" purity="5.0919222831726074e-01" nType="0">
          <Node pos="l" depth="2" NCoef="0" IVar="-1" Cut="9.4955271482467651e-01" cType="0" res="-9.9000000000000000e+01" rms="0.0000000000000000e+00" purity="5.2153104543685913e-01" nType="1"/>
          <Node pos="r" depth="2" NCoef="0" IVar="-1" Cut="0.0000000000000000e+00" cType="1" res="-9.9000000000000000e+01" rms="0.0000000000000000e+00" purity="4.6996587514877319e-01" nType="-1"/>
        </Node>
        <Node pos="r" depth="1" NCoef="0" IVar="7" Cut="9.0473186969757080e-01" cType="0" res="-9.9000000000000000e+01" rms="0.0000000000000000e+00" purity="4.9144414067268372e-01" nType="0">
          <Node pos="l" depth="2" NCoef="0" IVar="1" Cut="6.9012172520160675e-02" cType="1" res="-9.9000000000000000e+01" rms="0.0000000000000000e+00" purity="4.9789842963218689e-01" nType="0">
            <Node pos="l" depth="3" NCoef="0" IVar="-1" Cut="0.0000000000000000e+00" cType="1" res="-9.9000000000000000e+01" rms="0.0000000000000000e+00" purity="5.1007759571075439e-01" nType="1"/>
            <Node pos="r" depth="3" NCoef="0" IVar="-1" Cut="0.0000000000000000e+00" cType="1" res="-9.9000000000000000e+01" rms="0.0000000000000000e+00" purity="4.9331220984458923e-01" nType="-1"/>
          </Node>
          <Node pos="r" depth="2" NCoef="0" IVar="-1" Cut="1.1081010437011719e+02" cType="1" res="-9.9000000000000000e+01" rms="0.0000000000000000e+00" purity="4.6977686882019043e-01" nType="-1"/>
        </Node>
      </Node>
    </BinaryTree>
    <BinaryTree type="DecisionTree" boostWeight="2.7514883359781972e-02" itree="17">
      <Node pos="s" depth="0" NCoef="0" IVar="1" Cut="3.2662481069564819e-01" cType="0" res="-9.9000000000000000e+01" rms="0.0000000000000000e+00" purity="4.9979430437088013e-01" nType="0">
        <Node pos="l" depth="1" NCoef="0" IVar="6" Cut="4.7563189268112183e-01" cType="0" res="-9.9000000000000000e+01" rms="0.0000000000000000e+00" purity="5.1739037036895752e-01" nType="0">
          <Node pos="l" depth="2" NCoef="0" IVar="-1" Cut="0.0000000000000000e+00" cType="1" res="-9.9000000000000000e+01" rms="0.0000000000000000e+00" purity="5.4982531070709229e-01" nType="1"/>
          <Node pos="r" depth="2" NCoef="0" IVar="4" Cut="3.5750575065612793e+00" cType="1" res="-9.9000000000000000e+01" rms="0.0000000000000000e+00" purity="4.9812027812004089e-01" nType="0">
            <Node pos="l" depth="3" NCoef="0" IVar="-1" Cut="0.0000000000000000e+00" cType="1" res="-9.9000000000000000e+01" rms="0.0000000000000000e+00" purity="5.1342868804931641e-01" nType="1"/>
            <Node pos="r" depth="3" NCoef="0" IVar="-1" Cut="0.0000000000000000e+00" cType="1" res="-9.9000000000000000e+01" rms="0.0000000000000000e+00" purity="4.7953432798385620e-01" nType="-1"/>
          </Node>
        </Node>
        <Node pos="r" depth="1" NCoef="0" IVar="7" Cut="4.7613546252250671e-01" cType="0" res="-9.9000000000000000e+01" rms="0.0000000000000000e+00" purity="4.9543979763984680e-01" nType="0">
          <Node pos="l" depth="2" NCoef="0" IVar="4" Cut="2.5779871940612793e+00" cType="1" res="-9.9000000000000000e+01" rms="0.0000000000000000e+00" purity="5.0083839893341064e-01" nType="0">
            <Node pos="l" depth="3" NCoef="0" IVar="-1" Cut="0.0000000000000000e+00" cType="1" res="-9.9000000000000000e+01" rms="0.0000000000000000e+00" purity="5.3037506341934204e-01" nType="1"/>
            <Node pos="r" depth="3" NCoef="0" IVar="-1" Cut="0.0000000000000000e+00" cType="1" res="-9.9000000000000000e+01" rms="0.0000000000000000e+00" purity="4.9701565504074097e-01" nType="-1"/>
          </Node>
          <Node pos="r" depth="2" NCoef="0" IVar="-1" Cut="1.0865609741210938e+02" cType="0" res="-9.9000000000000000e+01" rms="0.0000000000000000e+00" purity="4.7639539837837219e-01" nType="-1"/>
        </Node>
      </Node>
    </BinaryTree>
    <BinaryTree type="DecisionTree" boostWeight="3.3991570214414901e-02" itree="18">
      <Node pos="s" depth="0" NCoef="0" IVar="2" Cut="2.0096183776855469e+02" cType="0" res="-9.9000000000000000e+01" rms="0.0000000000000000e+00" purity="5.0373363494873047e-01" nType="0">
        <Node pos="l" depth="1" NCoef="0" IVar="1" Cut="-9.4220340251922607e-02" cType="0" res="-9.9000000000000000e+01" rms="0.0000000000000000e+00" purity="5.1618796586990356e-01" nType="0">
          <Node pos="l" depth="2" NCoef="0" IVar="-1" Cut="9.9047666788101196e-01" cType="0" res="-9.9000000000000000e+01" rms="0.0000000000000000e+00" purity="5.2723729610443115e-01" nType="1"/>
          <Node pos="r" depth="2" NCoef="0" IVar="-1" Cut="0.0000000000000000e+00" cType="1" res="-9.9000000000000000e+01" rms="0.0000000000000000e+00" purity="4.7834864258766174e-01" nType="-1"/>
        </Node>
        <Node pos="r" depth="1" NCoef="0" IVar="0" Cut="1.3167633056640625e+02" cType="1" res="-9.9000000000000000e+01" rms="0.0000000000000000e+00" purity="4.9930027127265930e-01" nType="0">
          <Node pos="l" depth="2" NCoef="0" IVar="2" Cut="1.6678540039062500e+02" cType="0" res="-9.9000000000000000e+01" rms="0.0000000000000000e+00" purity="5.0361382961273193e-01" nType="0">
            <Node pos="l" depth="3" NCoef="0" IVar="-1" Cut="0.0000000000000000e+00" cType="1" res="-9.9000000000000000e+01" rms="0.0000000000000000e+00" purity="5.1228612661361694e-01" nType="1"/>
            <Node pos="r" depth="3" NCoef="0" IVar="-1" Cut="0.0000000000000000e+00" cType="1" res="-9.9000000000000000e+01" rms="0.0000000000000000e+00" purity="4.9560120701789856e-01" nType="-1"/>
          </Node>
          <Node pos="r" depth="2" NCoef="0" IVar="0" Cut="1.6675514221191406e+02" cType="0" res="-9.9000000000000000e+01" rms="0.0000000000000000e+00" purity="4.8680114746093750e-01" nType="0">
            <Node pos="l" depth="3" NCoef="0" IVar="-1" Cut="0.0000000000000000e+00" cType="1" res="-9.9000000000000000e+01" rms="0.0000000000000000e+00" purity="5.2710312604904175e-01" nType="1"/>
            <Node pos="r" depth="3" NCoef="0" IVar="-1" Cut="0.0000000000000000e+00" cType="1" res="-9.9000000000000000e+01" rms="0.0000000000000000e+00" purity="4.6865317225456238e-01" nType="-1"/>
          </Node>
        </Node>
      </Node>
    </BinaryTree>
    <BinaryTree type="DecisionTree" boostWeight="3.0336569362144183e-02" itree="19">
      <Node pos="s" depth="0" NCoef="0" IVar="1" Cut="1.8634308874607086e-01" cType="0" res="-9.9000000000000000e+01" rms="0.0000000000000000e+00" purity="5.0330674648284912e-01" nType="0">
        <Node pos="l" depth="1" NCoef="0" IVar="2" Cut="2.0113812255859375e+02" cType="0" res="-9.9000000000000000e+01" rms="0.0000000000000000e+00" purity="5.1075690984725952e-01" nType="0">
          <Node pos="l" depth="2" NCoef="0" IVar="-1" Cut="0.0000000000000000e+00" cType="1" res="-9.9000000000000000e+01" rms="0.0000000000000000e+00" purity="5.4220414161682129e-01" nType="1"/>
          <Node pos="r" depth="2" NCoef="0" IVar="4" Cut="3.3109762668609619e+00" cType="1" res="-9.9000000000000000e+01" rms="0.0000000000000000e+00" purity="5.0599890947341919e-01" nType="0">
            <Node pos="l" depth="3" NCoef="0" IVar="-1" Cut="0.0000000000000000e+00" cType="1" res="-9.9000000000000000e+01" rms="0.0000000000000000e+00" purity="5.1481598615646362e-01" nType="1"/>
            <Node pos="r" depth="3" NCoef="0" IVar="-1" Cut="0.0000000000000000e+00" cType="1" res="-9.9000000000000000e+01" rms="0.0000000000000000e+00" purity="4.9444234371185303e-01" nType="-1"/>
          </Node>
        </Node>
        <Node pos="r" depth="1" NCoef="0" IVar="7" Cut="4.7597181797027588e-01" cType="0" res="-9.9000000000000000e+01" rms="0.0000000000000000e+00" purity="4.9633440375328064e-01" nType="0">
          <Node pos="l" depth="2" NCoef="0" IVar="3" Cut="1.5868920087814331e+00" cType="1" res="-9.9000000000000000e+01" rms="0.0000000000000000e+00" purity="5.0293910503387451e-01" nType="0">
            <Node pos="l" depth="3" NCoef="0" IVar="-1" Cut="0.0000000000000000e+00" cType="1" res="-9.9000000000000000e+01" rms="0.0000000000000000e+00" purity="5.2087044715881348e-01" nType="1"/>
            <Node pos="r" depth="3" NCoef="0" IVar="-1" Cut="0.0000000000000000e+00" cType="1" res="-9.9000000000000000e+01" rms="0.0000000000000000e+00" purity="4.9265474081039429e-01" nType="-1"/>
          </Node>
          <Node pos="r" depth="2" NCoef="0" IVar="-1" Cut="9.9054062366485596e-01" cType="0" res="-9.9000000000000000e+01" rms="0.0000000000000000e+00" purity="4.7424742579460144e-01" nType="-1"/>
        </Node>
      </Node>
    </BinaryTree>
    <BinaryTree type="DecisionTree" boostWeight="1.8301548650857421e-02" itree="20">
      <Node pos="s" depth="0" NCoef="0" IVar="1" Cut="4.6690651774406433e-01" cType="0" res="-9.9000000000000000e+01" rms="0.0000000000000000e+00" purity="5.0411772727966309e-01" nType="0">
        <Node pos="l" depth="1" NCoef="0" IVar="-1" Cut="0.0000000000000000e+00" cType="1" res="-9.9000000000000000e+01" rms="0.0000000000000000e+00" purity="5.3155100345611572e-01" nType="1"/>
        <Node pos="r" depth="1" NCoef="0" IVar="4" Cut="2.7444620132446289e+00" cType="1" res="-9.9000000000000000e+01" rms="0.0000000000000000e+00" purity="5.0250798463821411e-01" nType="0">
          <Node pos="l" depth="2" NCoef="0" IVar="3" Cut="2.2516884803771973e+00" cType="1" res="-9.9000000000000000e+01" rms="0.0000000000000000e+00" purity="5.1974982023239136e-01" nType="0">
            <Node pos="l" depth="3" NCoef="0" IVar="-1" Cut="0.0000000000000000e+00" cType="1" res="-9.9000000000000000e+01" rms="0.0000000000000000e+00" purity="5.4237407445907593e-01" nType="1"/>
            <Node pos="r" depth="3" NCoef="0" IVar="-1" Cut="0.0000000000000000e+00" cType="1" res="-9.9000000000000000e+01" rms="0.0000000000000000e+00" purity="4.9985462427139282e-01" nType="-1"/>
          </Node>
          <Node pos="r" depth="2" NCoef="0" IVar="0" Cut="1.5530709838867188e+02" cType="0" res="-9.9000000000000000e+01" rms="0.0000000000000000e+00" purity="4.9930784106254578e-01" nType="0">
            <Node pos="l" depth="3" NCoef="0" IVar="-1" Cut="0.0000000000000000e+00" cType="1" res="-9.9000000000000000e+01" rms="0.0000000000000000e+00" purity="5.2110934257507324e-01" nType="1"/>
            <Node pos="r" depth="3" NCoef="0" IVar="-1" Cut="0.0000000000000000e+00" cType="1" res="-9.9000000000000000e+01" rms="0.0000000000000000e+00" purity="4.9644324183464050e-01" nType="-1"/>
          </Node>
        </Node>
      </Node>
    </BinaryTree>
    <BinaryTree type="DecisionTree" boostWeight="3.1749990904370196e-02" itree="21">
      <Node pos="s" depth="0" NCoef="0" IVar="5" Cut="9.9047619104385376e-01" cType="0" res="-9.9000000000000000e+01" rms="0.0000000000000000e+00" purity="5.0670713186264038e-01" nType="0">
        <Node pos="l" depth="1" NCoef="0" IVar="0" Cut="1.0962888336181641e+02" cType="0" res="-9.9000000000000000e+01" rms="0.0000000000000000e+00" purity="5.1476228237152100e-01" nType="0">
          <Node pos="l" depth="2" NCoef="0" IVar="-1" Cut="4.7561877965927124e-01" cType="0" res="-9.9000000000000000e+01" rms="0.0000000000000000e+00" purity="5.2685415744781494e-01" nType="1"/>
          <Node pos="r" depth="2" NCoef="0" IVar="3" Cut="1.6527631282806396e+00" cType="0" res="-9.9000000000000000e+01" rms="0.0000000000000000e+00" purity="4.9912264943122864e-01" nType="0">
            <Node pos="l" depth="3" NCoef="0" IVar="-1" Cut="0.0000000000000000e+00" cType="1" res="-9.9000000000000000e+01" rms="0.0000000000000000e+00" purity="5.1746499538421631e-01" nType="1"/>
            <Node pos="r" depth="3" NCoef="0" IVar="-1" Cut="0.0000000000000000e+00" cType="1" res="-9.9000000000000000e+01" rms="0.0000000000000000e+00" purity="4.8543807864189148e-01" nType="-1"/>
          </Node>
        </Node>
        <Node pos="r" depth="1" NCoef="0" IVar="1" Cut="1.8634308874607086e-01" cType="0" res="-9.9000000000000000e+01" rms="0.0000000000000000e+00" purity="5.0191915035247803e-01" nType="0">
          <Node pos="l" depth="2" NCoef="0" IVar="0" Cut="1.1833511352539062e+02" cType="1" res="-9.9000000000000000e+01" rms="0.0000000000000000e+00" purity="5.0859272480010986e-01" nType="0">
            <Node pos="l" depth="3" NCoef="0" IVar="-1" Cut="0.0000000000000000e+00" cType="1" res="-9.9000000000000000e+01" rms="0.0000000000000000e+00" purity="5.1691907644271851e-01" nType="1"/>
            <Node pos="r" depth="3" NCoef="0" IVar="-1" Cut="0.0000000000000000e+00" cType="1" res="-9.9000000000000000e+01" rms="0.0000000000000000e+00" purity="4.9565556645393372e-01" nType="-1"/>
          </Node>
          <Node pos="r" depth="2" NCoef="0" IVar="3" Cut="1.1128469705581665e+00" cType="1" res="-9.9000000000000000e+01" rms="0.0000000000000000e+00" purity="4.9559319019317627e-01" nType="0">
            <Node pos="l" depth="3" NCoef="0" IVar="-1" Cut="0.0000000000000000e+00" cType="1" res="-9.9000000000000000e+01" rms="0.0000000000000000e+00" purity="5.1981711387634277e-01" nType="1"/>
            <Node pos="r" depth="3" NCoef="0" IVar="-1" Cut="0.0000000000000000e+00" cType="1" res="-9.9000000000000000e+01" rms="0.0000000000000000e+00" purity="4.8947018384933472e-01" nType="-1"/>
          </Node>
        </Node>
      </Node>
    </BinaryTree>
    <BinaryTree type="DecisionTree" boostWeight="2.2282482244828841e-02" itree="22">
      <Node pos="s" depth="0" NCoef="0" IVar="4" Cut="2.7444620132446289e+00" cType="1" res="-9.9000000000000000e+01" rms="0.0000000000000000e+00" purity="5.0622820854187012e-01" nType="0">
        <Node pos="l" depth="1" NCoef="0" IVar="-1" Cut="2.2516884803771973e+00" cType="1" res="-9.9000000000000000e+01" rms="0.0000000000000000e+00" purity="5.2088183164596558e-01" nType="1"/>
        <Node pos="r" depth="1" NCoef="0" IVar="5" Cut="9.1428583860397339e-01" cType="0" res="-9.9000000000000000e+01" rms="0.0000000000000000e+00" purity="5.0368034839630127e-01" nType="0">
          <Node pos="l" depth="2" NCoef="0" IVar="-1" Cut="4.7565379738807678e-01" cType="0" res="-9.9000000000000000e+01" rms="0.0000000000000000e+00" purity="5.0727862119674683e-01" nType="1"/>
          <Node pos="r" depth="2" NCoef="0" IVar="6" Cut="3.9344066381454468e-01" cType="0" res="-9.9000000000000000e+01" rms="0.0000000000000000e+00" purity="4.9127584695816040e-01" nType="0">
            <Node pos="l" depth="3" NCoef="0" IVar="-1" Cut="0.0000000000000000e+00" cType="1" res="-9.9000000000000000e+01" rms="0.0000000000000000e+00" purity="5.1186501979827881e-01" nType="1"/>
            <Node pos="r" depth="3" NCoef="0" IVar="-1" Cut="0.0000000000000000e+00" cType="1" res="-9.9000000000000000e+01" rms="0.0000000000000000e+00" purity="4.8042315244674683e-01" nType="-1"/>
          </Node>
        </Node>
      </Node>
    </BinaryTree>
    <BinaryTree type="DecisionTree" boostWeight="1.8296083910154887e-02" itree="23">
      <Node pos="s" depth="0" NCoef="0" IVar="2" Cut="2.2089772033691406e+02" cType="0" res="-9.9000000000000000e+01" rms="0.0000000000000000e+00" purity="5.0205576419830322e-01" nType="0">
        <Node pos="l" depth="1" NCoef="0" IVar="1" Cut="-2.4079481139779091e-02" cType="0" res="-9.9000000000000000e+01" rms="0.0000000000000000e+00" purity="5.1451134681701660e-01" nType="0">
          <Node pos="l" depth="2" NCoef="0" IVar="-1" Cut="0.0000000000000000e+00" cType="1" res="-9.9000000000000000e+01" rms="0.0000000000000000e+00" purity="5.3443318605422974e-01" nType="1"/>
          <Node pos="r" depth="2" NCoef="0" IVar="-1" Cut="0.0000000000000000e+00" cType="1" res="-9.9000000000000000e+01" rms="0.0000000000000000e+00" purity="4.8878020048141479e-01" nType="-1"/>
        </Node>
        <Node pos="r" depth="1" NCoef="0" IVar="0" Cut="1.7771678161621094e+02" cType="0" res="-9.9000000000000000e+01" rms="0.0000000000000000e+00" purity="4.9936008453369141e-01" nType="0">
          <Node pos="l" depth="2" NCoef="0" IVar="-1" Cut="0.0000000000000000e+00" cType="1" res="-9.9000000000000000e+01" rms="0.0000000000000000e+00" purity="5.2492219209671021e-01" nType="1"/>
          <Node pos="r" depth="2" NCoef="0" IVar="0" Cut="1.3167485046386719e+02" cType="1" res="-9.9000000000000000e+01" rms="0.0000000000000000e+00" purity="4.9756446480751038e-01" nType="0">
            <Node pos="l" depth="3" NCoef="0" IVar="-1" Cut="0.0000000000000000e+00" cType="1" res="-9.9000000000000000e+01" rms="0.0000000000000000e+00" purity="5.0130927562713623e-01" nType="1"/>
            <Node pos="r" depth="3" NCoef="0" IVar="-1" Cut="0.0000000000000000e+00" cType="1" res="-9.9000000000000000e+01" rms="0.0000000000000000e+00" purity="4.8266234993934631e-01" nType="-1"/>
          </Node>
        </Node>
      </Node>
    </BinaryTree>
    <BinaryTree type="DecisionTree" boostWeight="2.2296649053750540e-02" itree="24">
      <Node pos="s" depth="0" NCoef="0" IVar="2" Cut="2.2089772033691406e+02" cType="0" res="-9.9000000000000000e+01" rms="0.0000000000000000e+00" purity="4.9960318207740784e-01" nType="0">
        <Node pos="l" depth="1" NCoef="0" IVar="0" Cut="1.0934803771972656e+02" cType="0" res="-9.9000000000000000e+01" rms="0.0000000000000000e+00" purity="5.1393550634384155e-01" nType="0">
          <Node pos="l" depth="2" NCoef="0" IVar="-1" Cut="0.0000000000000000e+00" cType="1" res="-9.9000000000000000e+01" rms="0.0000000000000000e+00" purity="5.3695195913314819e-01" nType="1"/>
          <Node pos="r" depth="2" NCoef="0" IVar="-1" Cut="0.0000000000000000e+00" cType="1" res="-9.9000000000000000e+01" rms="0.0000000000000000e+00" purity="4.9386113882064819e-01" nType="-1"/>
        </Node>
        <Node pos="r" depth="1" NCoef="0" IVar="0" Cut="1.7771678161621094e+02" cType="0" res="-9.9000000000000000e+01" rms="0.0000000000000000e+00" purity="4.9650236964225769e-01" nType="0">
          <Node pos="l" depth="2" NCoef="0" IVar="-1" Cut="0.0000000000000000e+00" cType="1" res="-9.9000000000000000e+01" rms="0.0000000000000000e+00" purity="5.2035760879516602e-01" nType="1"/>
          <Node pos="r" depth="2" NCoef="0" IVar="1" Cut="3.6870288848876953e-01" cType="0" res="-9.9000000000000000e+01" rms="0.0000000000000000e+00" purity="4.9482727050781250e-01" nType="0">
            <Node pos="l" depth="3" NCoef="0" IVar="-1" Cut="0.0000000000000000e+00" cType="1" res="-9.9000000000000000e+01" rms="0.0000000000000000e+00" purity="5.0906753540039062e-01" nType="1"/>
            <Node pos="r" depth="3" NCoef="0" IVar="-1" Cut="0.0000000000000000e+00" cType="1" res="-9.9000000000000000e+01" rms="0.0000000000000000e+00" purity="4.9181920289993286e-01" nType="-1"/>
          </Node>
        </Node>
      </Node>
    </BinaryTree>
    <BinaryTree type="DecisionTree" boostWeight="1.2769517758311654e-02" itree="25">
      <Node pos="s" depth="0" NCoef="0" IVar="4" Cut="2.7444620132446289e+00" cType="1" res="-9.9000000000000000e+01" rms="0.0000000000000000e+00" purity="5.0215905904769897e-01" nType="0">
        <Node pos="l" depth="1" NCoef="0" IVar="-1" Cut="2.2516884803771973e+00" cType="1" res="-9.9000000000000000e+01" rms="0.0000000000000000e+00" purity="5.1723611354827881e-01" nType="1"/>
        <Node pos="r" depth="1" NCoef="0" IVar="4" Cut="3.9881119728088379e+00" cType="1" res="-9.9000000000000000e+01" rms="0.0000000000000000e+00" purity="4.9953785538673401e-01" nType="0">
          <Node pos="l" depth="2" NCoef="0" IVar="4" Cut="2.9221267700195312e+00" cType="1" res="-9.9000000000000000e+01" rms="0.0000000000000000e+00" purity="5.0197523832321167e-01" nType="0">
            <Node pos="l" depth="3" NCoef="0" IVar="-1" Cut="0.0000000000000000e+00" cType="1" res="-9.9000000000000000e+01" rms="0.0000000000000000e+00" purity="5.1927292346954346e-01" nType="1"/>
            <Node pos="r" depth="3" NCoef="0" IVar="-1" Cut="0.0000000000000000e+00" cType="1" res="-9.9000000000000000e+01" rms="0.0000000000000000e+00" purity="4.9954050779342651e-01" nType="-1"/>
          </Node>
          <Node pos="r" depth="2" NCoef="0" IVar="-1" Cut="1.0962888336181641e+02" cType="1" res="-9.9000000000000000e+01" rms="0.0000000000000000e+00" purity="4.8588356375694275e-01" nType="-1"/>
        </Node>
      </Node>
    </BinaryTree>
    <BinaryTree type="DecisionTree" boostWeight="1.4820535519897197e-02" itree="26">
      <Node pos="s" depth="0" NCoef="0" IVar="2" Cut="2.2089772033691406e+02" cType="0" res="-9.9000000000000000e+01" rms="0.0000000000000000e+00" purity="5.0383663177490234e-01" nType="0">
        <Node pos="l" depth="1" NCoef="0" IVar="1" Cut="-9.4220340251922607e-02" cType="0" res="-9.9000000000000000e+01" rms="0.0000000000000000e+00" purity="5.1624131202697754e-01" nType="0">
          <Node pos="l" depth="2" NCoef="0" IVar="-1" Cut="6.6108725965023041e-02" cType="0" res="-9.9000000000000000e+01" rms="0.0000000000000000e+00" purity="5.2817922830581665e-01" nType="1"/>
          <Node pos="r" depth="2" NCoef="0" IVar="-1" Cut="0.0000000000000000e+00" cType="1" res="-9.9000000000000000e+01" rms="0.0000000000000000e+00" purity="4.8814693093299866e-01" nType="-1"/>
        </Node>
        <Node pos="r" depth="1" NCoef="0" IVar="4" Cut="4.3767476081848145e+00" cType="1" res="-9.9000000000000000e+01" rms="0.0000000000000000e+00" purity="5.0115352869033813e-01" nType="0">
          <Node pos="l" depth="2" NCoef="0" IVar="-1" Cut="3.4160891175270081e-01" cType="0" res="-9.9000000000000000e+01" rms="0.0000000000000000e+00" purity="5.0274145603179932e-01" nType="1"/>
          <Node pos="r" depth="2" NCoef="0" IVar="-1" Cut="0.0000000000000000e+00" cType="1" res="-9.9000000000000000e+01" rms="0.0000000000000000e+00" purity="4.7850158810615540e-01" nType="-1"/>
        </Node>
      </Node>
    </BinaryTree>
    <BinaryTree type="DecisionTree" boostWeight="1.6134332438598169e-02" itree="27">
      <Node pos="s" depth="0" NCoef="0" IVar="2" Cut="2.2089772033691406e+02" cType="0" res="-9.9000000000000000e+01" rms="0.0000000000000000e+00" purity="5.0092381238937378e-01" nType="0">
        <Node pos="l" depth="1" NCoef="0" IVar="0" Cut="1.0934803771972656e+02" cType="0" res="-9.9000000000000000e+01" rms="0.0000000000000000e+00" purity="5.1475107669830322e-01" nType="0">
          <Node pos="l" depth="2" NCoef="0" IVar="-1" Cut="0.0000000000000000e+00" cType="1" res="-9.9000000000000000e+01" rms="0.0000000000000000e+00" purity="5.3194385766983032e-01" nType="1"/>
          <Node pos="r" depth="2" NCoef="0" IVar="-1" Cut="0.0000000000000000e+00" cType="1" res="-9.9000000000000000e+01" rms="0.0000000000000000e+00" purity="4.9976041913032532e-01" nType="-1"/>
        </Node>
        <Node pos="r" depth="1" NCoef="0" IVar="0" Cut="1.7771678161621094e+02" cType="0" res="-9.9000000000000000e+01" rms="0.0000000000000000e+00" purity="4.9793377518653870e-01" nType="0">
          <Node pos="l" depth="2" NCoef="0" IVar="-1" Cut="0.0000000000000000e+00" cType="1" res="-9.9000000000000000e+01" rms="0.0000000000000000e+00" purity="5.1451247930526733e-01" nType="1"/>
          <Node pos="r" depth="2" NCoef="0" IVar="6" Cut="4.7565379738807678e-01" cType="0" res="-9.9000000000000000e+01" rms="0.0000000000000000e+00" purity="4.9677014350891113e-01" nType="0">
            <Node pos="l" depth="3" NCoef="0" IVar="-1" Cut="0.0000000000000000e+00" cType="1" res="-9.9000000000000000e+01" rms="0.0000000000000000e+00" purity="5.0344383716583252e-01" nType="1"/>
            <Node pos="r" depth="3" NCoef="0" IVar="-1" Cut="0.0000000000000000e+00" cType="1" res="-9.9000000000000000e+01" rms="0.0000000000000000e+00" purity="4.9225893616676331e-01" nType="-1"/>
          </Node>
        </Node>
      </Node>
    </BinaryTree>
    <BinaryTree type="DecisionTree" boostWeight="2.0307758256511564e-02" itree="28">
      <Node pos="s" depth="0" NCoef="0" IVar="2" Cut="2.2089772033691406e+02" cType="0" res="-9.9000000000000000e+01" rms="0.0000000000000000e+00" purity="5.0135469436645508e-01" nType="0">
        <Node pos="l" depth="1" NCoef="0" IVar="1" Cut="-2.4079481139779091e-02" cType="0" res="-9.9000000000000000e+01" rms="0.0000000000000000e+00" purity="5.1503074169158936e-01" nType="0">
          <Node pos="l" depth="2" NCoef="0" IVar="-1" Cut="0.0000000000000000e+00" cType="1" res="-9.9000000000000000e+01" rms="0.0000000000000000e+00" purity="5.2897369861602783e-01" nType="1"/>
          <Node pos="r" depth="2" NCoef="0" IVar="-1" Cut="0.0000000000000000e+00" cType="1" res="-9.9000000000000000e+01" rms="0.0000000000000000e+00" purity="4.9702182412147522e-01" nType="-1"/>
        </Node>
        <Node pos="r" depth="1" NCoef="0" IVar="7" Cut="4.7613546252250671e-01" cType="0" res="-9.9000000000000000e+01" rms="0.0000000000000000e+00" purity="4.9839776754379272e-01" nType="0">
          <Node pos="l" depth="2" NCoef="0" IVar="7" Cut="8.2534378767013550e-01" cType="1" res="-9.9000000000000000e+01" rms="0.0000000000000000e+00" purity="5.0087910890579224e-01" nType="0">
            <Node pos="l" depth="3" NCoef="0" IVar="-1" Cut="0.0000000000000000e+00" cType="1" res="-9.9000000000000000e+01" rms="0.0000000000000000e+00" purity="5.2703773975372314e-01" nType="1"/>
            <Node pos="r" depth="3" NCoef="0" IVar="-1" Cut="0.0000000000000000e+00" cType="1" res="-9.9000000000000000e+01" rms="0.0000000000000000e+00" purity="4.9771130084991455e-01" nType="-1"/>
          </Node>
          <Node pos="r" depth="2" NCoef="0" IVar="1" Cut="1.7061087489128113e-01" cType="0" res="-9.9000000000000000e+01" rms="0.0000000000000000e+00" purity="4.8827096819877625e-01" nType="0">
            <Node pos="l" depth="3" NCoef="0" IVar="-1" Cut="0.0000000000000000e+00" cType="1" res="-9.9000000000000000e+01" rms="0.0000000000000000e+00" purity="5.1035749912261963e-01" nType="1"/>
            <Node pos="r" depth="3" NCoef="0" IVar="-1" Cut="0.0000000000000000e+00" cType="1" res="-9.9000000000000000e+01" rms="0.0000000000000000e+00" purity="4.6128529310226440e-01" nType="-1"/>
          </Node>
        </Node>
      </Node>
    </BinaryTree>
    <BinaryTree type="DecisionTree" boostWeight="7.3446825841158400e-02" itree="29">
      <Node pos="s" depth="0" NCoef="0" IVar="7" Cut="4.7613546252250671e-01" cType="0" res="-9.9000000000000000e+01" rms="0.0000000000000000e+00" purity="5.0378698110580444e-01" nType="0">
        <Node pos="l" depth="1" NCoef="0" IVar="7" Cut="9.2511433362960815e-01" cType="0" res="-9.9000000000000000e+01" rms="0.0000000000000000e+00" purity="5.0651061534881592e-01" nType="0">
          <Node pos="l" depth="2" NCoef="0" IVar="6" Cut="2.8571224212646484e-01" cType="0" res="-9.9000000000000000e+01" rms="0.0000000000000000e+00" purity="5.1200062036514282e-01" nType="0">
            <Node pos="l" depth="3" NCoef="0" IVar="-1" Cut="0.0000000000000000e+00" cType="1" res="-9.9000000000000000e+01" rms="0.0000000000000000e+00" purity="5.7623577117919922e-01" nType="1"/>
            <Node pos="r" depth="3" NCoef="0" IVar="-1" Cut="0.0000000000000000e+00" cType="1" res="-9.9000000000000000e+01" rms="0.0000000000000000e+00" purity="4.7382441163063049e-01" nType="-1"/>
          </Node>
          <Node pos="r" depth="2" NCoef="0" IVar="7" Cut="8.1821709871292114e-01" cType="1" res="-9.9000000000000000e+01" rms="0.0000000000000000e+00" purity="4.9603298306465149e-01" nType="0">
            <Node pos="l" depth="3" NCoef="0" IVar="-1" Cut="0.0000000000000000e+00" cType="1" res="-9.9000000000000000e+01" rms="0.0000000000000000e+00" purity="5.2804023027420044e-01" nType="1"/>
            <Node pos="r" depth="3" NCoef="0" IVar="-1" Cut="0.0000000000000000e+00" cType="1" res="-9.9000000000000000e+01" rms="0.0000000000000000e+00" purity="4.8340961337089539e-01" nType="-1"/>
          </Node>
        </Node>
        <Node pos="r" depth="1" NCoef="0" IVar="0" Cut="1.0865609741210938e+02" cType="0" res="-9.9000000000000000e+01" rms="0.0000000000000000e+00" purity="4.9334776401519775e-01" nType="0">
          <Node pos="l" depth="2" NCoef="0" IVar="3" Cut="2.2504718303680420e+00" cType="1" res="-9.9000000000000000e+01" rms="0.0000000000000000e+00" purity="5.1109004020690918e-01" nType="0">
            <Node pos="l" depth="3" NCoef="0" IVar="-1" Cut="0.0000000000000000e+00" cType="1" res="-9.9000000000000000e+01" rms="0.0000000000000000e+00" purity="5.4846805334091187e-01" nType="1"/>
            <Node pos="r" depth="3" NCoef="0" IVar="-1" Cut="0.0000000000000000e+00" cType="1" res="-9.9000000000000000e+01" rms="0.0000000000000000e+00" purity="4.6622058749198914e-01" nType="-1"/>
          </Node>
          <Node pos="r" depth="2" NCoef="0" IVar="-1" Cut="0.0000000000000000e+00" cType="1" res="-9.9000000000000000e+01" rms="0.0000000000000000e+00" purity="4.6698105335235596e-01" nType="-1"/>
        </Node>
      </Node>
    </BinaryTree>
    <BinaryTree type="DecisionTree" boostWeight="3.4694713374793455e-02" itree="30">
      <Node pos="s" depth="0" NCoef="0" IVar="6" Cut="4.7565379738807678e-01" cType="1" res="-9.9000000000000000e+01" rms="0.0000000000000000e+00" purity="5.0973796844482422e-01" nType="0">
        <Node pos="l" depth="1" NCoef="0" IVar="7" Cut="8.6664772033691406e-01" cType="0" res="-9.9000000000000000e+01" rms="0.0000000000000000e+00" purity="5.1621371507644653e-01" nType="0">
          <Node pos="l" depth="2" NCoef="0" IVar="-1" Cut="1.5868920087814331e+00" cType="0" res="-9.9000000000000000e+01" rms="0.0000000000000000e+00" purity="5.1992261409759521e-01" nType="1"/>
          <Node pos="r" depth="2" NCoef="0" IVar="-1" Cut="0.0000000000000000e+00" cType="1" res="-9.9000000000000000e+01" rms="0.0000000000000000e+00" purity="4.9220803380012512e-01" nType="-1"/>
        </Node>
        <Node pos="r" depth="1" NCoef="0" IVar="6" Cut="6.5024989843368530e-01" cType="0" res="-9.9000000000000000e+01" rms="0.0000000000000000e+00" purity="5.0029695034027100e-01" nType="0">
          <Node pos="l" depth="2" NCoef="0" IVar="-1" Cut="9.6618092060089111e-01" cType="0" res="-9.9000000000000000e+01" rms="0.0000000000000000e+00" purity="5.1009130477905273e-01" nType="1"/>
          <Node pos="r" depth="2" NCoef="0" IVar="-1" Cut="0.0000000000000000e+00" cType="1" res="-9.9000000000000000e+01" rms="0.0000000000000000e+00" purity="4.5995986461639404e-01" nType="-1"/>
        </Node>
      </Node>
    </BinaryTree>
    <BinaryTree type="DecisionTree" boostWeight="3.0950358989074750e-02" itree="31">
      <Node pos="s" depth="0" NCoef="0" IVar="6" Cut="4.7565379738807678e-01" cType="1" res="-9.9000000000000000e+01" rms="0.0000000000000000e+00" purity="5.0382304191589355e-01" nType="0">
        <Node pos="l" depth="1" NCoef="0" IVar="-1" Cut="1.4377684020996094e+02" cType="1" res="-9.9000000000000000e+01" rms="0.0000000000000000e+00" purity="5.0986844301223755e-01" nType="1"/>
        <Node pos="r" depth="1" NCoef="0" IVar="6" Cut="9.4955271482467651e-01" cType="0" res="-9.9000000000000000e+01" rms="0.0000000000000000e+00" purity="4.9501022696495056e-01" nType="0">
          <Node pos="l" depth="2" NCoef="0" IVar="-1" Cut="0.0000000000000000e+00" cType="1" res="-9.9000000000000000e+01" rms="0.0000000000000000e+00" purity="5.2880543470382690e-01" nType="1"/>
          <Node pos="r" depth="2" NCoef="0" IVar="3" Cut="1.3193173408508301e+00" cType="1" res="-9.9000000000000000e+01" rms="0.0000000000000000e+00" purity="4.8541939258575439e-01" nType="0">
            <Node pos="l" depth="3" NCoef="0" IVar="-1" Cut="0.0000000000000000e+00" cType="1" res="-9.9000000000000000e+01" rms="0.0000000000000000e+00" purity="5.1535981893539429e-01" nType="1"/>
            <Node pos="r" depth="3" NCoef="0" IVar="-1" Cut="0.0000000000000000e+00" cType="1" res="-9.9000000000000000e+01" rms="0.0000000000000000e+00" purity="4.7559651732444763e-01" nType="-1"/>
          </Node>
        </Node>
      </Node>
    </BinaryTree>
    <BinaryTree type="DecisionTree" boostWeight="1.6238643175028086e-02" itree="32">
      <Node pos="s" depth="0" NCoef="0" IVar="4" Cut="2.7444620132446289e+00" cType="1" res="-9.9000000000000000e+01" rms="0.0000000000000000e+00" purity="4.9977862834930420e-01" nType="0">
        <Node pos="l" depth="1" NCoef="0" IVar="3" Cut="2.4834475517272949e+00" cType="1" res="-9.9000000000000000e+01" rms="0.0000000000000000e+00" purity="5.1106995344161987e-01" nType="0">
          <Node pos="l" depth="2" NCoef="0" IVar="-1" Cut="0.0000000000000000e+00" cType="1" res="-9.9000000000000000e+01" rms="0.0000000000000000e+00" purity="5.2299660444259644e-01" nType="1"/>
          <Node pos="r" depth="2" NCoef="0" IVar="-1" Cut="0.0000000000000000e+00" cType="1" res="-9.9000000000000000e+01" rms="0.0000000000000000e+00" purity="4.9422323703765869e-01" nType="-1"/>
        </Node>
        <Node pos="r" depth="1" NCoef="0" IVar="0" Cut="1.5530709838867188e+02" cType="0" res="-9.9000000000000000e+01" rms="0.0000000000000000e+00" purity="4.9781447649002075e-01" nType="0">
          <Node pos="l" depth="2" NCoef="0" IVar="-1" Cut="0.0000000000000000e+00" cType="1" res="-9.9000000000000000e+01" rms="0.0000000000000000e+00" purity="5.1014381647109985e-01" nType="1"/>
          <Node pos="r" depth="2" NCoef="0" IVar="3" Cut="7.5471317768096924e-01" cType="1" res="-9.9000000000000000e+01" rms="0.0000000000000000e+00" purity="4.9631384015083313e-01" nType="0">
            <Node pos="l" depth="3" NCoef="0" IVar="-1" Cut="0.0000000000000000e+00" cType="1" res="-9.9000000000000000e+01" rms="0.0000000000000000e+00" purity="5.1599162817001343e-01" nType="1"/>
            <Node pos="r" depth="3" NCoef="0" IVar="-1" Cut="0.0000000000000000e+00" cType="1" res="-9.9000000000000000e+01" rms="0.0000000000000000e+00" purity="4.9451735615730286e-01" nType="-1"/>
          </Node>
        </Node>
      </Node>
    </BinaryTree>
    <BinaryTree type="DecisionTree" boostWeight="1.6128343682308820e-02" itree="33">
      <Node pos="s" depth="0" NCoef="0" IVar="1" Cut="-1.6436119377613068e-01" cType="0" res="-9.9000000000000000e+01" rms="0.0000000000000000e+00" purity="5.0186783075332642e-01" nType="0">
        <Node pos="l" depth="1" NCoef="0" IVar="2" Cut="2.2089772033691406e+02" cType="0" res="-9.9000000000000000e+01" rms="0.0000000000000000e+00" purity="5.0305432081222534e-01" nType="0">
          <Node pos="l" depth="2" NCoef="0" IVar="-1" Cut="2.6077014160156250e+02" cType="0" res="-9.9000000000000000e+01" rms="0.0000000000000000e+00" purity="5.2313381433486938e-01" nType="1"/>
          <Node pos="r" depth="2" NCoef="0" IVar="0" Cut="1.0865609741210938e+02" cType="1" res="-9.9000000000000000e+01" rms="0.0000000000000000e+00" purity="4.9942827224731445e-01" nType="0">
            <Node pos="l" depth="3" NCoef="0" IVar="-1" Cut="0.0000000000000000e+00" cType="1" res="-9.9000000000000000e+01" rms="0.0000000000000000e+00" purity="5.0464457273483276e-01" nType="1"/>
            <Node pos="r" depth="3" NCoef="0" IVar="-1" Cut="0.0000000000000000e+00" cType="1" res="-9.9000000000000000e+01" rms="0.0000000000000000e+00" purity="4.9528104066848755e-01" nType="-1"/>
          </Node>
        </Node>
        <Node pos="r" depth="1" NCoef="0" IVar="-1" Cut="0.0000000000000000e+00" cType="1" res="-9.9000000000000000e+01" rms="0.0000000000000000e+00" purity="4.8318639397621155e-01" nType="-1"/>
      </Node>
    </BinaryTree>
    <BinaryTree type="DecisionTree" boostWeight="2.0855475919568281e-02" itree="34">
      <Node pos="s" depth="0" NCoef="0" IVar="7" Cut="4.7613546252250671e-01" cType="0" res="-9.9000000000000000e+01" rms="0.0000000000000000e+00" purity="5.0189560651779175e-01" nType="0">
        <Node pos="l" depth="1" NCoef="0" IVar="4" Cut="4.1582336425781250e+00" cType="1" res="-9.9000000000000000e+01" rms="0.0000000000000000e+00" purity="5.0404775142669678e-01" nType="0">
          <Node pos="l" depth="2" NCoef="0" IVar="-1" Cut="2.9770023822784424e+00" cType="1" res="-9.9000000000000000e+01" rms="0.0000000000000000e+00" purity="5.0600546598434448e-01" nType="1"/>
          <Node pos="r" depth="2" NCoef="0" IVar="-1" Cut="0.0000000000000000e+00" cType="1" res="-9.9000000000000000e+01" rms="0.0000000000000000e+00" purity="4.8679918050765991e-01" nType="-1"/>
        </Node>
        <Node pos="r" depth="1" NCoef="0" IVar="0" Cut="1.0865609741210938e+02" cType="0" res="-9.9000000000000000e+01" rms="0.0000000000000000e+00" purity="4.9365165829658508e-01" nType="0">
          <Node pos="l" depth="2" NCoef="0" IVar="6" Cut="9.1394281387329102e-01" cType="0" res="-9.9000000000000000e+01" rms="0.0000000000000000e+00" purity="5.0688594579696655e-01" nType="0">
            <Node pos="l" depth="3" NCoef="0" IVar="-1" Cut="0.0000000000000000e+00" cType="1" res="-9.9000000000000000e+01" rms="0.0000000000000000e+00" purity="5.2912431955337524e-01" nType="1"/>
            <Node pos="r" depth="3" NCoef="0" IVar="-1" Cut="0.0000000000000000e+00" cType="1" res="-9.9000000000000000e+01" rms="0.0000000000000000e+00" purity="4.8244878649711609e-01" nType="-1"/>
          </Node>
          <Node pos="r" depth="2" NCoef="0" IVar="-1" Cut="0.0000000000000000e+00" cType="1" res="-9.9000000000000000e+01" rms="0.0000000000000000e+00" purity="4.7405686974525452e-01" nType="-1"/>
        </Node>
      </Node>
    </BinaryTree>
    <BinaryTree type="DecisionTree" boostWeight="1.3776431653435376e-02" itree="35">
      <Node pos="s" depth="0" NCoef="0" IVar="1" Cut="-1.6436119377613068e-01" cType="0" res="-9.9000000000000000e+01" rms="0.0000000000000000e+00" purity="4.9900859594345093e-01" nType="0">
        <Node pos="l" depth="1" NCoef="0" IVar="2" Cut="2.2089772033691406e+02" cType="0" res="-9.9000000000000000e+01" rms="0.0000000000000000e+00" purity="4.9991908669471741e-01" nType="0">
          <Node pos="l" depth="2" NCoef="0" IVar="-1" Cut="2.6077014160156250e+02" cType="0" res="-9.9000000000000000e+01" rms="0.0000000000000000e+00" purity="5.1689684391021729e-01" nType="1"/>
          <Node pos="r" depth="2" NCoef="0" IVar="3" Cut="1.8273054361343384e+00" cType="0" res="-9.9000000000000000e+01" rms="0.0000000000000000e+00" purity="4.9685475230216980e-01" nType="0">
            <Node pos="l" depth="3" NCoef="0" IVar="-1" Cut="0.0000000000000000e+00" cType="1" res="-9.9000000000000000e+01" rms="0.0000000000000000e+00" purity="5.0125837326049805e-01" nType="1"/>
            <Node pos="r" depth="3" NCoef="0" IVar="-1" Cut="0.0000000000000000e+00" cType="1" res="-9.9000000000000000e+01" rms="0.0000000000000000e+00" purity="4.9212664365768433e-01" nType="-1"/>
          </Node>
        </Node>
        <Node pos="r" depth="1" NCoef="0" IVar="-1" Cut="0.0000000000000000e+00" cType="1" res="-9.9000000000000000e+01" rms="0.0000000000000000e+00" purity="4.8466771841049194e-01" nType="-1"/>
      </Node>
    </BinaryTree>
    <BinaryTree type="DecisionTree" boostWeight="1.1778467647540354e-02" itree="36">
      <Node pos="s" depth="0" NCoef="0" IVar="1" Cut="4.6690651774406433e-01" cType="0" res="-9.9000000000000000e+01" rms="0.0000000000000000e+00" purity="4.9862146377563477e-01" nType="0">
        <Node pos="l" depth="1" NCoef="0" IVar="-1" Cut="0.0000000000000000e+00" cType="1" res="-9.9000000000000000e+01" rms="0.0000000000000000e+00" purity="5.1482486724853516e-01" nType="1"/>
        <Node pos="r" depth="1" NCoef="0" IVar="7" Cut="4.7613546252250671e-01" cType="0" res="-9.9000000000000000e+01" rms="0.0000000000000000e+00" purity="4.9767428636550903e-01" nType="0">
          <Node pos="l" depth="2" NCoef="0" IVar="0" Cut="8.6368507385253906e+01" cType="1" res="-9.9000000000000000e+01" rms="0.0000000000000000e+00" purity="4.9983751773834229e-01" nType="0">
            <Node pos="l" depth="3" NCoef="0" IVar="-1" Cut="0.0000000000000000e+00" cType="1" res="-9.9000000000000000e+01" rms="0.0000000000000000e+00" purity="5.0938576459884644e-01" nType="1"/>
            <Node pos="r" depth="3" NCoef="0" IVar="-1" Cut="0.0000000000000000e+00" cType="1" res="-9.9000000000000000e+01" rms="0.0000000000000000e+00" purity="4.9736499786376953e-01" nType="-1"/>
          </Node>
          <Node pos="r" depth="2" NCoef="0" IVar="-1" Cut="1.0865609741210938e+02" cType="0" res="-9.9000000000000000e+01" rms="0.0000000000000000e+00" purity="4.8965355753898621e-01" nType="-1"/>
        </Node>
      </Node>
    </BinaryTree>
    <BinaryTree type="DecisionTree" boostWeight="1.1040310127986822e-02" itree="37">
      <Node pos="s" depth="0" NCoef="0" IVar="0" Cut="1.5469656372070312e+02" cType="0" res="-9.9000000000000000e+01" rms="0.0000000000000000e+00" purity="5.0033950805664062e-01" nType="0">
        <Node pos="l" depth="1" NCoef="0" IVar="-1" Cut="0.0000000000000000e+00" cType="1" res="-9.9000000000000000e+01" rms="0.0000000000000000e+00" purity="5.1257836818695068e-01" nType="1"/>
        <Node pos="r" depth="1" NCoef="0" IVar="1" Cut="3.4946851432323456e-02" cType="0" res="-9.9000000000000000e+01" rms="0.0000000000000000e+00" purity="4.9901545047760010e-01" nType="0">
          <Node pos="l" depth="2" NCoef="0" IVar="2" Cut="1.4136575317382812e+02" cType="1" res="-9.9000000000000000e+01" rms="0.0000000000000000e+00" purity="5.0177329778671265e-01" nType="0">
            <Node pos="l" depth="3" NCoef="0" IVar="-1" Cut="0.0000000000000000e+00" cType="1" res="-9.9000000000000000e+01" rms="0.0000000000000000e+00" purity="5.1917338371276855e-01" nType="1"/>
            <Node pos="r" depth="3" NCoef="0" IVar="-1" Cut="0.0000000000000000e+00" cType="1" res="-9.9000000000000000e+01" rms="0.0000000000000000e+00" purity="4.9985989928245544e-01" nType="-1"/>
          </Node>
          <Node pos="r" depth="2" NCoef="0" IVar="3" Cut="1.4532617330551147e+00" cType="1" res="-9.9000000000000000e+01" rms="0.0000000000000000e+00" purity="4.8522776365280151e-01" nType="0">
            <Node pos="l" depth="3" NCoef="0" IVar="-1" Cut="0.0000000000000000e+00" cType="1" res="-9.9000000000000000e+01" rms="0.0000000000000000e+00" purity="5.0391596555709839e-01" nType="1"/>
            <Node pos="r" depth="3" NCoef="0" IVar="-1" Cut="0.0000000000000000e+00" cType="1" res="-9.9000000000000000e+01" rms="0.0000000000000000e+00" purity="4.6904262900352478e-01" nType="-1"/>
          </Node>
        </Node>
      </Node>
    </BinaryTree>
    <BinaryTree type="DecisionTree" boostWeight="2.0856813789200564e-02" itree="38">
      <Node pos="s" depth="0" NCoef="0" IVar="1" Cut="4.6061377972364426e-02" cType="0" res="-9.9000000000000000e+01" rms="0.0000000000000000e+00" purity="5.0176417827606201e-01" nType="0">
        <Node pos="l" depth="1" NCoef="0" IVar="2" Cut="2.2106225585937500e+02" cType="0" res="-9.9000000000000000e+01" rms="0.0000000000000000e+00" purity="5.0438481569290161e-01" nType="0">
          <Node pos="l" depth="2" NCoef="0" IVar="-1" Cut="0.0000000000000000e+00" cType="1" res="-9.9000000000000000e+01" rms="0.0000000000000000e+00" purity="5.2096998691558838e-01" nType="1"/>
          <Node pos="r" depth="2" NCoef="0" IVar="3" Cut="1.5890074968338013e+00" cType="0" res="-9.9000000000000000e+01" rms="0.0000000000000000e+00" purity="5.0262296199798584e-01" nType="0">
            <Node pos="l" depth="3" NCoef="0" IVar="-1" Cut="0.0000000000000000e+00" cType="1" res="-9.9000000000000000e+01" rms="0.0000000000000000e+00" purity="5.0678515434265137e-01" nType="1"/>
            <Node pos="r" depth="3" NCoef="0" IVar="-1" Cut="0.0000000000000000e+00" cType="1" res="-9.9000000000000000e+01" rms="0.0000000000000000e+00" purity="4.9570733308792114e-01" nType="-1"/>
          </Node>
        </Node>
        <Node pos="r" depth="1" NCoef="0" IVar="3" Cut="2.5459895133972168e+00" cType="1" res="-9.9000000000000000e+01" rms="0.0000000000000000e+00" purity="4.9356999993324280e-01" nType="0">
          <Node pos="l" depth="2" NCoef="0" IVar="0" Cut="8.5635871887207031e+01" cType="0" res="-9.9000000000000000e+01" rms="0.0000000000000000e+00" purity="5.0140553712844849e-01" nType="0">
            <Node pos="l" depth="3" NCoef="0" IVar="-1" Cut="0.0000000000000000e+00" cType="1" res="-9.9000000000000000e+01" rms="0.0000000000000000e+00" purity="5.1588821411132812e-01" nType="1"/>
            <Node pos="r" depth="3" NCoef="0" IVar="-1" Cut="0.0000000000000000e+00" cType="1" res="-9.9000000000000000e+01" rms="0.0000000000000000e+00" purity="4.7935998439788818e-01" nType="-1"/>
          </Node>
          <Node pos="r" depth="2" NCoef="0" IVar="-1" Cut="0.0000000000000000e+00" cType="1" res="-9.9000000000000000e+01" rms="0.0000000000000000e+00" purity="4.7360920906066895e-01" nType="-1"/>
        </Node>
      </Node>
    </BinaryTree>
    <BinaryTree type="DecisionTree" boostWeight="1.6394880488437187e-02" itree="39">
      <Node pos="s" depth="0" NCoef="0" IVar="1" Cut="2.5648394227027893e-01" cType="0" res="-9.9000000000000000e+01" rms="0.0000000000000000e+00" purity="5.0066560506820679e-01" nType="0">
        <Node pos="l" depth="1" NCoef="0" IVar="4" Cut="3.9736111164093018e+00" cType="1" res="-9.9000000000000000e+01" rms="0.0000000000000000e+00" purity="5.0728827714920044e-01" nType="0">
          <Node pos="l" depth="2" NCoef="0" IVar="-1" Cut="1.9968078136444092e+00" cType="0" res="-9.9000000000000000e+01" rms="0.0000000000000000e+00" purity="5.1234102249145508e-01" nType="1"/>
          <Node pos="r" depth="2" NCoef="0" IVar="-1" Cut="0.0000000000000000e+00" cType="1" res="-9.9000000000000000e+01" rms="0.0000000000000000e+00" purity="4.8850262165069580e-01" nType="-1"/>
        </Node>
        <Node pos="r" depth="1" NCoef="0" IVar="7" Cut="4.7597181797027588e-01" cType="0" res="-9.9000000000000000e+01" rms="0.0000000000000000e+00" purity="4.9741619825363159e-01" nType="0">
          <Node pos="l" depth="2" NCoef="0" IVar="3" Cut="8.6565160751342773e-01" cType="1" res="-9.9000000000000000e+01" rms="0.0000000000000000e+00" purity="5.0163310766220093e-01" nType="0">
            <Node pos="l" depth="3" NCoef="0" IVar="-1" Cut="0.0000000000000000e+00" cType="1" res="-9.9000000000000000e+01" rms="0.0000000000000000e+00" purity="5.2087795734405518e-01" nType="1"/>
            <Node pos="r" depth="3" NCoef="0" IVar="-1" Cut="0.0000000000000000e+00" cType="1" res="-9.9000000000000000e+01" rms="0.0000000000000000e+00" purity="4.9917098879814148e-01" nType="-1"/>
          </Node>
          <Node pos="r" depth="2" NCoef="0" IVar="-1" Cut="9.0446859598159790e-01" cType="1" res="-9.9000000000000000e+01" rms="0.0000000000000000e+00" purity="4.8294967412948608e-01" nType="-1"/>
        </Node>
      </Node>
    </BinaryTree>
    <BinaryTree type="DecisionTree" boostWeight="1.5783095417213459e-02" itree="40">
      <Node pos="s" depth="0" NCoef="0" IVar="0" Cut="1.5469656372070312e+02" cType="0" res="-9.9000000000000000e+01" rms="0.0000000000000000e+00" purity="5.0215530395507812e-01" nType="0">
        <Node pos="l" depth="1" NCoef="0" IVar="-1" Cut="0.0000000000000000e+00" cType="1" res="-9.9000000000000000e+01" rms="0.0000000000000000e+00" purity="5.1359605789184570e-01" nType="1"/>
        <Node pos="r" depth="1" NCoef="0" IVar="1" Cut="3.4946851432323456e-02" cType="0" res="-9.9000000000000000e+01" rms="0.0000000000000000e+00" purity="5.0091749429702759e-01" nType="0">
          <Node pos="l" depth="2" NCoef="0" IVar="0" Cut="1.1557656860351562e+02" cType="1" res="-9.9000000000000000e+01" rms="0.0000000000000000e+00" purity="5.0326710939407349e-01" nType="0">
            <Node pos="l" depth="3" NCoef="0" IVar="-1" Cut="0.0000000000000000e+00" cType="1" res="-9.9000000000000000e+01" rms="0.0000000000000000e+00" purity="5.0764960050582886e-01" nType="1"/>
            <Node pos="r" depth="3" NCoef="0" IVar="-1" Cut="0.0000000000000000e+00" cType="1" res="-9.9000000000000000e+01" rms="0.0000000000000000e+00" purity="4.9714082479476929e-01" nType="-1"/>
          </Node>
          <Node pos="r" depth="2" NCoef="0" IVar="3" Cut="1.4532617330551147e+00" cType="1" res="-9.9000000000000000e+01" rms="0.0000000000000000e+00" purity="4.8916321992874146e-01" nType="0">
            <Node pos="l" depth="3" NCoef="0" IVar="-1" Cut="0.0000000000000000e+00" cType="1" res="-9.9000000000000000e+01" rms="0.0000000000000000e+00" purity="5.0490015745162964e-01" nType="1"/>
            <Node pos="r" depth="3" NCoef="0" IVar="-1" Cut="0.0000000000000000e+00" cType="1" res="-9.9000000000000000e+01" rms="0.0000000000000000e+00" purity="4.7552815079689026e-01" nType="-1"/>
          </Node>
        </Node>
      </Node>
    </BinaryTree>
    <BinaryTree type="DecisionTree" boostWeight="8.3627900567810262e-03" itree="41">
      <Node pos="s" depth="0" NCoef="0" IVar="4" Cut="2.7444620132446289e+00" cType="1" res="-9.9000000000000000e+01" rms="0.0000000000000000e+00" purity="5.0132030248641968e-01" nType="0">
        <Node pos="l" depth="1" NCoef="0" IVar="-1" Cut="2.3558080196380615e+00" cType="1" res="-9.9000000000000000e+01" rms="0.0000000000000000e+00" purity="5.1104247570037842e-01" nType="1"/>
        <Node pos="r" depth="1" NCoef="0" IVar="1" Cut="4.6690651774406433e-01" cType="0" res="-9.9000000000000000e+01" rms="0.0000000000000000e+00" purity="4.9962934851646423e-01" nType="0">
          <Node pos="l" depth="2" NCoef="0" IVar="-1" Cut="0.0000000000000000e+00" cType="1" res="-9.9000000000000000e+01" rms="0.0000000000000000e+00" purity="5.1448893547058105e-01" nType="1"/>
          <Node pos="r" depth="2" NCoef="0" IVar="1" Cut="1.2655925005674362e-02" cType="0" res="-9.9000000000000000e+01" rms="0.0000000000000000e+00" purity="4.9860391020774841e-01" nType="0">
            <Node pos="l" depth="3" NCoef="0" IVar="-1" Cut="0.0000000000000000e+00" cType="1" res="-9.9000000000000000e+01" rms="0.0000000000000000e+00" purity="5.0050359964370728e-01" nType="1"/>
            <Node pos="r" depth="3" NCoef="0" IVar="-1" Cut="0.0000000000000000e+00" cType="1" res="-9.9000000000000000e+01" rms="0.0000000000000000e+00" purity="4.9135404825210571e-01" nType="-1"/>
          </Node>
        </Node>
      </Node>
    </BinaryTree>
    <BinaryTree type="DecisionTree" boostWeight="1.1364129064813157e-02" itree="42">
      <Node pos="s" depth="0" NCoef="0" IVar="4" Cut="2.7444620132446289e+00" cType="1" res="-9.9000000000000000e+01" rms="0.0000000000000000e+00" purity="4.9992144107818604e-01" nType="0">
        <Node pos="l" depth="1" NCoef="0" IVar="4" Cut="2.3558080196380615e+00" cType="1" res="-9.9000000000000000e+01" rms="0.0000000000000000e+00" purity="5.0895255804061890e-01" nType="0">
          <Node pos="l" depth="2" NCoef="0" IVar="-1" Cut="0.0000000000000000e+00" cType="1" res="-9.9000000000000000e+01" rms="0.0000000000000000e+00" purity="5.2192068099975586e-01" nType="1"/>
          <Node pos="r" depth="2" NCoef="0" IVar="-1" Cut="0.0000000000000000e+00" cType="1" res="-9.9000000000000000e+01" rms="0.0000000000000000e+00" purity="4.9908685684204102e-01" nType="-1"/>
        </Node>
        <Node pos="r" depth="1" NCoef="0" IVar="1" Cut="4.6690651774406433e-01" cType="0" res="-9.9000000000000000e+01" rms="0.0000000000000000e+00" purity="4.9835073947906494e-01" nType="0">
          <Node pos="l" depth="2" NCoef="0" IVar="-1" Cut="0.0000000000000000e+00" cType="1" res="-9.9000000000000000e+01" rms="0.0000000000000000e+00" purity="5.1239973306655884e-01" nType="1"/>
          <Node pos="r" depth="2" NCoef="0" IVar="0" Cut="1.5530709838867188e+02" cType="0" res="-9.9000000000000000e+01" rms="0.0000000000000000e+00" purity="4.9738129973411560e-01" nType="0">
            <Node pos="l" depth="3" NCoef="0" IVar="-1" Cut="0.0000000000000000e+00" cType="1" res="-9.9000000000000000e+01" rms="0.0000000000000000e+00" purity="5.0775021314620972e-01" nType="1"/>
            <Node pos="r" depth="3" NCoef="0" IVar="-1" Cut="0.0000000000000000e+00" cType="1" res="-9.9000000000000000e+01" rms="0.0000000000000000e+00" purity="4.9602019786834717e-01" nType="-1"/>
          </Node>
        </Node>
      </Node>
    </BinaryTree>
    <BinaryTree type="DecisionTree" boostWeight="1.5911134333135301e-02" itree="43">
      <Node pos="s" depth="0" NCoef="0" IVar="2" Cut="2.0096183776855469e+02" cType="0" res="-9.9000000000000000e+01" rms="0.0000000000000000e+00" purity="5.0156098604202271e-01" nType="0">
        <Node pos="l" depth="1" NCoef="0" IVar="0" Cut="8.6368507385253906e+01" cType="0" res="-9.9000000000000000e+01" rms="0.0000000000000000e+00" purity="5.0809270143508911e-01" nType="0">
          <Node pos="l" depth="2" NCoef="0" IVar="-1" Cut="4.7559720277786255e-01" cType="0" res="-9.9000000000000000e+01" rms="0.0000000000000000e+00" purity="5.1619094610214233e-01" nType="1"/>
          <Node pos="r" depth="2" NCoef="0" IVar="-1" Cut="0.0000000000000000e+00" cType="1" res="-9.9000000000000000e+01" rms="0.0000000000000000e+00" purity="4.8101577162742615e-01" nType="-1"/>
        </Node>
        <Node pos="r" depth="1" NCoef="0" IVar="2" Cut="1.4400170898437500e+02" cType="1" res="-9.9000000000000000e+01" rms="0.0000000000000000e+00" purity="4.9924260377883911e-01" nType="0">
          <Node pos="l" depth="2" NCoef="0" IVar="-1" Cut="1.6755400598049164e-01" cType="0" res="-9.9000000000000000e+01" rms="0.0000000000000000e+00" purity="5.1221239566802979e-01" nType="1"/>
          <Node pos="r" depth="2" NCoef="0" IVar="-1" Cut="1.5213877868652344e+02" cType="0" res="-9.9000000000000000e+01" rms="0.0000000000000000e+00" purity="4.9666765332221985e-01" nType="-1"/>
        </Node>
      </Node>
    </BinaryTree>
    <BinaryTree type="DecisionTree" boostWeight="8.3069944788581561e-03" itree="44">
      <Node pos="s" depth="0" NCoef="0" IVar="2" Cut="3.0064123535156250e+02" cType="1" res="-9.9000000000000000e+01" rms="0.0000000000000000e+00" purity="5.0296229124069214e-01" nType="0">
        <Node pos="l" depth="1" NCoef="0" IVar="-1" Cut="2.3798466491699219e+02" cType="0" res="-9.9000000000000000e+01" rms="0.0000000000000000e+00" purity="5.0376194715499878e-01" nType="1"/>
        <Node pos="r" depth="1" NCoef="0" IVar="-1" Cut="0.0000000000000000e+00" cType="1" res="-9.9000000000000000e+01" rms="0.0000000000000000e+00" purity="4.8902359604835510e-01" nType="-1"/>
      </Node>
    </BinaryTree>
    <BinaryTree type="DecisionTree" boostWeight="1.4632182404138844e-02" itree="45">
      <Node pos="s" depth="0" NCoef="0" IVar="4" Cut="2.7444620132446289e+00" cType="1" res="-9.9000000000000000e+01" rms="0.0000000000000000e+00" purity="5.0111091136932373e-01" nType="0">
        <Node pos="l" depth="1" NCoef="0" IVar="3" Cut="2.2516884803771973e+00" cType="1" res="-9.9000000000000000e+01" rms="0.0000000000000000e+00" purity="5.0881141424179077e-01" nType="0">
          <Node pos="l" depth="2" NCoef="0" IVar="-1" Cut="0.0000000000000000e+00" cType="1" res="-9.9000000000000000e+01" rms="0.0000000000000000e+00" purity="5.2108722925186157e-01" nType="1"/>
          <Node pos="r" depth="2" NCoef="0" IVar="-1" Cut="0.0000000000000000e+00" cType="1" res="-9.9000000000000000e+01" rms="0.0000000000000000e+00" purity="4.9800640344619751e-01" nType="-1"/>
        </Node>
        <Node pos="r" depth="1" NCoef="0" IVar="1" Cut="3.2662481069564819e-01" cType="0" res="-9.9000000000000000e+01" rms="0.0000000000000000e+00" purity="4.9977183341979980e-01" nType="0">
          <Node pos="l" depth="2" NCoef="0" IVar="6" Cut="4.7563189268112183e-01" cType="0" res="-9.9000000000000000e+01" rms="0.0000000000000000e+00" purity="5.0615364313125610e-01" nType="0">
            <Node pos="l" depth="3" NCoef="0" IVar="-1" Cut="0.0000000000000000e+00" cType="1" res="-9.9000000000000000e+01" rms="0.0000000000000000e+00" purity="5.2297478914260864e-01" nType="1"/>
            <Node pos="r" depth="3" NCoef="0" IVar="-1" Cut="0.0000000000000000e+00" cType="1" res="-9.9000000000000000e+01" rms="0.0000000000000000e+00" purity="4.9622723460197449e-01" nType="-1"/>
          </Node>
          <Node pos="r" depth="2" NCoef="0" IVar="7" Cut="4.7613546252250671e-01" cType="0" res="-9.9000000000000000e+01" rms="0.0000000000000000e+00" purity="4.9787566065788269e-01" nType="0">
            <Node pos="l" depth="3" NCoef="0" IVar="-1" Cut="0.0000000000000000e+00" cType="1" res="-9.9000000000000000e+01" rms="0.0000000000000000e+00" purity="5.0209325551986694e-01" nType="1"/>
            <Node pos="r" depth="3" NCoef="0" IVar="-1" Cut="0.0000000000000000e+00" cType="1" res="-9.9000000000000000e+01" rms="0.0000000000000000e+00" purity="4.8193073272705078e-01" nType="-1"/>
          </Node>
        </Node>
      </Node>
    </BinaryTree>
    <BinaryTree type="DecisionTree" boostWeight="1.3429986315719122e-02" itree="46">
      <Node pos="s" depth="0" NCoef="0" IVar="1" Cut="3.2662481069564819e-01" cType="0" res="-9.9000000000000000e+01" rms="0.0000000000000000e+00" purity="4.9993214011192322e-01" nType="0">
        <Node pos="l" depth="1" NCoef="0" IVar="4" Cut="3.6144561767578125e+00" cType="1" res="-9.9000000000000000e+01" rms="0.0000000000000000e+00" purity="5.0829958915710449e-01" nType="0">
          <Node pos="l" depth="2" NCoef="0" IVar="-1" Cut="1.2392489910125732e+00" cType="0" res="-9.9000000000000000e+01" rms="0.0000000000000000e+00" purity="5.1785832643508911e-01" nType="1"/>
          <Node pos="r" depth="2" NCoef="0" IVar="-1" Cut="0.0000000000000000e+00" cType="1" res="-9.9000000000000000e+01" rms="0.0000000000000000e+00" purity="4.9620884656906128e-01" nType="-1"/>
        </Node>
        <Node pos="r" depth="1" NCoef="0" IVar="4" Cut="2.5779871940612793e+00" cType="1" res="-9.9000000000000000e+01" rms="0.0000000000000000e+00" purity="4.9786555767059326e-01" nType="0">
          <Node pos="l" depth="2" NCoef="0" IVar="-1" Cut="0.0000000000000000e+00" cType="1" res="-9.9000000000000000e+01" rms="0.0000000000000000e+00" purity="5.1358234882354736e-01" nType="1"/>
          <Node pos="r" depth="2" NCoef="0" IVar="-1" Cut="4.7613546252250671e-01" cType="0" res="-9.9000000000000000e+01" rms="0.0000000000000000e+00" purity="4.9564576148986816e-01" nType="-1"/>
        </Node>
      </Node>
    </BinaryTree>
    <BinaryTree type="DecisionTree" boostWeight="1.6085261939443238e-02" itree="47">
      <Node pos="s" depth="0" NCoef="0" IVar="1" Cut="3.2662481069564819e-01" cType="0" res="-9.9000000000000000e+01" rms="0.0000000000000000e+00" purity="5.0188058614730835e-01" nType="0">
        <Node pos="l" depth="1" NCoef="0" IVar="5" Cut="9.6190518140792847e-01" cType="0" res="-9.9000000000000000e+01" rms="0.0000000000000000e+00" purity="5.0790810585021973e-01" nType="0">
          <Node pos="l" depth="2" NCoef="0" IVar="-1" Cut="3.6144561767578125e+00" cType="1" res="-9.9000000000000000e+01" rms="0.0000000000000000e+00" purity="5.1615548133850098e-01" nType="1"/>
          <Node pos="r" depth="2" NCoef="0" IVar="-1" Cut="0.0000000000000000e+00" cType="1" res="-9.9000000000000000e+01" rms="0.0000000000000000e+00" purity="4.9570873379707336e-01" nType="-1"/>
        </Node>
        <Node pos="r" depth="1" NCoef="0" IVar="7" Cut="4.7613546252250671e-01" cType="0" res="-9.9000000000000000e+01" rms="0.0000000000000000e+00" purity="5.0039196014404297e-01" nType="0">
          <Node pos="l" depth="2" NCoef="0" IVar="7" Cut="9.0017712116241455e-01" cType="0" res="-9.9000000000000000e+01" rms="0.0000000000000000e+00" purity="5.0301551818847656e-01" nType="0">
            <Node pos="l" depth="3" NCoef="0" IVar="-1" Cut="0.0000000000000000e+00" cType="1" res="-9.9000000000000000e+01" rms="0.0000000000000000e+00" purity="5.0624954700469971e-01" nType="1"/>
            <Node pos="r" depth="3" NCoef="0" IVar="-1" Cut="0.0000000000000000e+00" cType="1" res="-9.9000000000000000e+01" rms="0.0000000000000000e+00" purity="4.9450773000717163e-01" nType="-1"/>
          </Node>
          <Node pos="r" depth="2" NCoef="0" IVar="6" Cut="9.1396540403366089e-01" cType="1" res="-9.9000000000000000e+01" rms="0.0000000000000000e+00" purity="4.9112764000892639e-01" nType="0">
            <Node pos="l" depth="3" NCoef="0" IVar="-1" Cut="0.0000000000000000e+00" cType="1" res="-9.9000000000000000e+01" rms="0.0000000000000000e+00" purity="5.0258511304855347e-01" nType="1"/>
            <Node pos="r" depth="3" NCoef="0" IVar="-1" Cut="0.0000000000000000e+00" cType="1" res="-9.9000000000000000e+01" rms="0.0000000000000000e+00" purity="4.8030564188957214e-01" nType="-1"/>
          </Node>
        </Node>
      </Node>
    </BinaryTree>
    <BinaryTree type="DecisionTree" boostWeight="1.2282777554143746e-02" itree="48">
      <Node pos="s" depth="0" NCoef="0" IVar="1" Cut="3.2662481069564819e-01" cType="0" res="-9.9000000000000000e+01" rms="0.0000000000000000e+00" purity="5.0061827898025513e-01" nType="0">
        <Node pos="l" depth="1" NCoef="0" IVar="2" Cut="1.8250422668457031e+02" cType="0" res="-9.9000000000000000e+01" rms="0.0000000000000000e+00" purity="5.0713223218917847e-01" nType="0">
          <Node pos="l" depth="2" NCoef="0" IVar="-1" Cut="0.0000000000000000e+00" cType="1" res="-9.9000000000000000e+01" rms="0.0000000000000000e+00" purity="5.2350944280624390e-01" nType="1"/>
          <Node pos="r" depth="2" NCoef="0" IVar="4" Cut="3.6144561767578125e+00" cType="1" res="-9.9000000000000000e+01" rms="0.0000000000000000e+00" purity="5.0120240449905396e-01" nType="0">
